svm_type c_svc
kernel_type rbf
gamma 0.2
nr_class 4
total_sv 2496
rho -0.958573 -1.01476 -2.46288 0.0502382 0.0779021 -0.0711396
label 0 3 1 2
nr_sv 1211 443 314 528
SV
1 0 0 1:1 4:1 5:2 
1 0 0 1:3 4:1 5:2 
1 0 0 1:4 4:1 5:3 
1 0 0 1:1 5:2 
1 0 0 1:1 5:2 
0.6773996407390754 0 0 1:2 5:5 
0 0 1 1:2 2:-1 4:1 5:2 
0 0 1 1:2 2:-1 4:1 5:2 
1 0 0 1:1 5:2 
1 0 0 1:1 5:2 
0 0 1 1:1 2:-1 4:1 5:1 
0 0 1 1:1 2:-1 4:1 5:2 
1 0 0 1:1 5:2 
1 0 0 1:1 5:2 
0 1 0 1:2 2:-2 5:3 
0 1 0 1:2 2:-2 5:1 
0 0 1 1:1 2:-1 4:1 5:1 
0 0 1 1:1 2:-1 4:1 5:1 
0 0 1 1:4 2:-1 4:1 5:4 
1 0 0 1:3 4:1 5:2 
1 0 0 1:2 4:1 5:2 
1 0 0 1:2 4:1 5:2 
1 0 0 1:2 5:3 
0 0 1 1:4 2:-1 4:1 5:3 
0 0.6216815162917627 0 1:4 2:-2 5:5 
1 0 0 1:3 4:1 5:2 
0 1 0 1:4 2:-2 5:3 
0 1 1 1:4 2:-2 5:2 
0 1 1 1:4 2:-2 5:2 
1 0 0 1:1 4:1 5:2 
1 0 0 1:4 4:1 5:3 
0 0.4206169717332397 0 1:1 2:-2 4:1 5:1 
0 1 0 1:2 2:-2 5:1 
0 1 0 1:2 2:-2 5:1 
1 0 0 1:1 5:2 
1 0 0 1:2 4:1 5:1 
1 0 0 1:2 4:1 5:2 
1 0 0 1:2 4:1 5:2 
1 0 0 1:1 4:1 5:2 
1 0 0 1:2 5:3 
0 0 0.9689439383091797 1:4 2:-1 5:4 
0 0 1 1:4 2:-1 5:2 
0 0 1 1:4 2:-1 5:3 
0 0 1 1:4 2:-1 5:2 
0 0 1 1:4 2:-1 5:2 
0 0 1 1:1 2:-1 4:1 5:2 
0 1 0 1:2 2:-2 5:1 
1 0 0 1:1 5:2 
1 0 0 1:1 5:2 
0 0 0.3656615102346164 1:1 2:-1 4:1 5:4 
0 0 1 1:1 2:-1 4:1 5:2 
1 0 0 1:4 4:1 5:1 
1 0 0 1:4 4:1 5:2 
1 0 0 1:4 4:1 5:3 
0 1 0 1:2 2:-2 5:2 
0 1 0 1:2 2:-2 5:1 
1 0 0 1:1 5:2 
1 0 0 1:1 5:2 
0 1 0 1:2 2:-2 5:5 
0 1 0 1:2 2:-2 5:1 
1 0 0 1:1 4:1 5:2 
0 1 0 1:2 2:-2 5:1 
0 0 1 1:4 2:-1 4:1 5:4 
0 0 1 1:4 2:-1 4:1 5:4 
0 0 1 1:3 2:-1 4:1 5:2 
1 0 0 1:2 5:5 
0 0 1 1:1 2:-1 4:1 5:3 
0 0 1 1:4 2:-1 4:1 5:3 
0 1 0 1:1 2:-2 4:1 5:1 
0 1 0 1:2 2:-2 5:4 
0 1 0 1:2 2:-2 5:2 
0 0 1 1:1 2:-1 4:1 5:4 
0 0 1 1:2 2:-1 4:1 5:3 
0 0 1 1:3 2:-1 4:1 5:3 
0 0 0.1421658481032515 2:-1 3:1 5:4 
0 1 0 1:3 2:-2 5:4 
0 1 0 1:3 2:-2 5:3 
0 1 0 1:1 2:-2 5:7 
0 0.3141161262007046 0 1:1 2:-2 5:6 
0 0 1 1:1 2:-1 4:1 5:3 
0 0 1 1:1 2:-1 4:1 5:3 
0 0 1 1:1 2:-1 5:2 
0 0 1 2:-1 3:1 5:4 
0 0 1 1:1 2:-1 5:3 
0 1 0 1:4 2:-2 5:3 
0 0 1 1:4 2:-1 4:1 5:2 
0 1 0 1:2 2:-2 5:3 
1 0 0 1:1 4:1 5:2 
0 0 1 1:2 2:-1 4:1 5:1 
0 0 1 1:2 2:-1 4:1 5:1 
1 0 0 1:1 4:1 5:2 
1 0 0 1:1 4:1 5:1 
1 0 0 1:3 4:1 5:2 
0 0 1 1:1 2:-1 4:1 5:4 
1 0 0 1:1 4:1 5:2 
0 1 0 1:1 2:-2 4:1 5:1 
1 0.1413608163358594 1 1:1 2:-1 3:1 4:1 5:2 
1 0.1103354989498398 1 1:1 2:-1 3:1 4:1 5:2 
0 1 0 1:2 2:-2 4:1 5:4 
0 1 0 1:2 2:-2 4:1 5:4 
1 0 0 1:2 5:2 
0 1 0 1:2 2:-2 5:4 
0 1 0 1:3 2:-2 5:7 
0 1 0 1:2 2:-2 5:3 
0 0 1 1:1 2:-1 4:1 5:3 
1 0 0 1:1 5:2 
1 0 0 1:1 4:1 5:2 
0 0 1 1:1 2:-1 4:1 5:3 
1 0 1 1:1 4:1 5:1 
0 1 0 1:1 2:-2 4:1 5:1 
0 1 0 1:2 2:-2 4:1 5:2 
0 1 0 1:2 2:-2 4:1 5:2 
0 1 0 1:2 2:-2 5:3 
0 1 0 1:2 2:-2 5:4 
0 1 0 1:2 2:-2 5:5 
0 1 0 1:2 2:-2 5:5 
0 0 0.1179667180722805 1:1 2:-2 5:1 
0 1 0 1:2 2:-2 5:4 
0 1 0 1:3 2:-2 5:7 
0 1 0 1:2 2:-2 5:3 
0 0 1 1:1 2:-2 5:1 
0 1 0 1:2 2:-2 5:4 
0 1 0 1:3 2:-2 5:7 
0 1 0 1:2 2:-2 5:3 
0 1 0 1:2 2:-2 4:1 5:5 
0 1 0 1:2 2:-2 4:1 5:5 
0 0 1 1:2 2:-1 4:1 5:1 
0 0 1 1:2 2:-1 4:1 5:1 
1 0 0 1:1 5:2 
0 1 1 1:4 2:-2 5:2 
1 0 0 1:1 4:1 5:2 
0 0 1 1:4 2:-1 4:1 5:1 
0 0 1 1:4 2:-1 4:1 5:3 
0 1 0 1:4 2:-2 4:1 5:5 
0 1 0 1:2 2:-2 5:5 
0 1 0 1:2 2:-2 5:2 
0 0 1 2:-1 4:1 5:1 
1 0 0 1:1 5:2 
0 0 1 1:1 2:-1 4:1 5:1 
0 0 1 1:1 2:-1 4:1 5:3 
0 1 0 1:2 2:-2 5:2 
0 1 0 1:2 2:-2 5:2 
0 1 0 1:2 2:-2 5:1 
0 0 1 1:4 2:-1 4:1 5:2 
0 0 1 1:4 2:-1 4:1 5:3 
0 0 1 1:4 2:-1 4:1 5:4 
0 0 1 1:4 2:-1 4:1 5:4 
0 0 1 1:4 2:-1 5:3 
1 0 0 1:4 4:1 5:3 
0 0 1 1:1 2:-1 4:1 5:3 
0 0 1 1:4 2:-1 4:1 5:3 
0 0 1 1:4 2:-1 4:1 5:4 
0 0 1 1:4 2:-1 4:1 5:3 
0 0 1 1:4 2:-1 4:1 5:3 
0 0 1 1:4 2:-1 4:1 5:2 
0 0 1 1:4 2:-1 4:1 5:3 
0 0 1 1:4 2:-1 4:1 5:3 
0 0 1 1:4 2:-1 4:1 5:3 
1 0 0 1:1 4:1 5:2 
1 0 0 1:1 4:1 5:2 
0 0 1 1:4 2:-1 4:1 5:3 
0 1 0 1:2 2:-2 4:1 5:1 
0.8382182896216595 0 0 1:3 5:3 
1 0 0 1:3 5:2 
0 0 1 1:1 2:-1 5:2 
0 0 1 1:1 2:-1 5:3 
0 0 1 1:1 2:-1 4:1 5:2 
0 0 1 1:4 2:-1 5:2 
0 0 1 1:4 2:-1 5:4 
1 0 0 1:4 4:1 5:2 
0 0 1 1:4 2:-1 5:6 
1 0 0 1:1 4:1 5:2 
1 0 0 1:1 5:1 
1 0 0 1:2 5:3 
0 0 1 1:1 2:-1 5:3 
0 0 1 1:4 2:-1 5:4 
1 0 0 1:1 5:2 
0.8484802096543068 0 0 1:2 5:5 
0 0 1 1:4 2:-1 5:6 
0 0.2453913231278938 0 1:3 2:-1 5:7 
0 0 1 1:4 2:-1 5:6 
0 1 0 1:1 2:-2 4:1 5:1 
1 0 0 1:4 4:1 5:1 
0 0 1 1:1 2:-1 5:2 
0 0 1 1:1 2:-1 5:3 
0 0 1 1:1 2:-1 5:2 
0 0 1 1:1 2:-1 5:3 
0 0 1 1:1 2:-1 4:1 5:4 
0 0 1 1:1 2:-1 4:1 5:3 
0 0 1 1:1 2:-1 4:1 5:2 
1 0 0 1:1 4:1 5:2 
1 0 0 1:1 4:1 5:2 
0 1 0 1:4 2:-2 5:5 
0 1 0 1:4 2:-2 5:9 
0 1 0 1:2 2:-2 5:8 
0 1 0 1:2 2:-2 5:1 
1 0 0 1:1 5:2 
1 0 0 1:1 5:2 
1 0 0.8603726756242577 1:2 4:1 5:1 
0 0 1 1:2 2:-1 4:1 5:2 
0 0 1 1:2 2:-1 4:1 5:2 
1 0 0 1:2 4:1 5:2 
0 0 1 1:4 2:-1 4:1 5:3 
0 0 1 1:4 2:-1 4:1 5:3 
0 0 1 1:4 2:-1 4:1 5:3 
0 1 0 1:2 2:-2 4:1 5:4 
0 1 0 1:2 2:-2 4:1 5:4 
0 0 1 1:1 2:-1 4:1 5:2 
0 0 1 1:1 2:-1 4:1 5:2 
1 0 1 1:1 4:1 5:1 
0 1 0 1:2 2:-2 3:1 4:1 5:2 
0 1 0.7844473960451607 1:2 2:-2 3:1 4:1 5:2 
1 0 0 1:1 5:1 
1 0 0 1:1 5:2 
1 0 0 1:1 5:2 
1 0 0 1:1 5:2 
0 0 1 1:1 2:-1 4:1 5:3 
0 0 1 1:1 2:-1 4:1 5:3 
1 0 1 1:1 4:1 5:1 
0 0 1 1:1 2:-1 5:3 
1 0 0 1:4 4:1 5:2 
1 0 0 1:2 4:1 5:2 
0 1 0.5280288413854165 1:3 2:-2 5:1 
0 1 0 1:2 2:-2 5:4 
0 1 0 1:2 2:-2 5:2 
1 0 0 1:1 4:1 5:2 
1 0 0 1:1 4:1 5:2 
1 0 0 1:1 5:2 
0 1 0 1:2 2:-2 4:1 5:1 
0 1 0 1:2 2:-2 4:1 5:1 
1 0 0 1:1 4:1 5:2 
0 1 0 1:2 2:-2 5:3 
0 1 0 1:2 2:-2 5:2 
0 0 1 1:4 2:-1 4:1 5:4 
1 0 0 1:4 4:1 5:2 
0 0 1 1:4 2:-1 4:1 5:3 
1 0 0 1:1 5:2 
1 0 0 1:4 4:1 5:2 
0 1 0 1:2 2:-2 5:3 
0 1 0 1:2 2:-2 5:3 
0 1 0 1:2 2:-2 5:5 
0 1 0 1:2 2:-2 5:4 
1 0 0 1:1 5:2 
1 0 0 1:1 5:2 
1 0 0 1:1 5:2 
1 0 0 1:1 5:2 
0 0.5237980721559622 0 1:1 2:-2 4:1 5:3 
0 0 1 1:4 2:-1 4:1 5:3 
0 0 1 1:4 2:-1 4:1 5:3 
0 0 1 1:4 2:-1 5:4 
0 0 1 1:4 2:-1 5:3 
0 0.1528335556075622 0 1:2 2:-1 5:4 
0 0 1 1:4 2:-1 5:3 
0 0 1 1:4 2:-1 5:2 
0 0 1 1:4 2:-1 5:3 
0 0 1 1:4 2:-1 5:3 
0 0.9145582129863857 1 1:1 2:-2 5:1 
1 0 0 1:2 4:1 5:2 
0 1 0 1:2 2:-2 5:5 
0 1 0 1:2 2:-2 5:1 
0 1 0 1:2 2:-2 5:5 
0 1 0 1:2 2:-2 5:4 
0 1 0 1:2 2:-2 5:7 
1 0 0 1:1 4:1 5:2 
0 0.9673744143926203 0 1:1 2:-2 4:1 5:1 
1 0 0 1:1 4:1 5:2 
1 0 1 1:4 5:1 
0 0 1 1:1 2:-1 4:1 5:3 
0 0 1 1:1 2:-1 4:1 5:3 
1 0 0 1:1 5:2 
1 0 0 1:1 4:1 5:2 
1 0 0 1:2 4:1 5:2 
1 0 1 1:1 4:1 5:1 
1 0 0 1:1 5:2 
1 0 0.3140464847519851 1:1 5:1 
1 0 0 1:1 5:2 
1 0 0 1:1 5:2 
0 1 0 1:1 2:-2 4:1 5:1 
0 0.07142923858731345 0 1:1 2:-2 4:1 5:7 
0 1 0 1:2 2:-2 5:4 
0 0.9653363900555553 0 1:1 2:-2 5:6 
0.7604627723672965 0 0 1:1 4:1 5:3 
1 0 0 1:1 4:1 5:3 
1 0 0 1:1 5:2 
0 0 1 1:1 2:-1 4:1 5:4 
0 1 0.06741425560465646 1:2 2:-1 4:1 5:6 
0 0 1 1:4 2:-1 5:4 
0 1 0 1:3 2:-1 5:7 
0 0 1 1:4 2:-1 5:7 
0 1 0 1:2 2:-2 4:1 5:3 
1 0 0 1:1 4:1 5:3 
0 0 0.4387474063067799 2:-1 3:1 4:1 5:2 
0 0 1 1:1 2:-1 5:2 
0 0 1 1:1 2:-1 4:1 5:2 
0 0 1 1:4 2:-1 4:1 5:4 
0 0 1 1:4 2:-1 4:1 5:4 
0 0 1 2:-1 4:1 5:1 
0 0.01792745673465563 0 1:4 2:-1 4:1 5:10 
0 0.04273212836320942 0 1:2 2:-1 4:1 5:5 
1 0 0 1:1 4:1 5:3 
0 0 1 1:1 2:-1 4:1 5:2 
0 0 1 1:1 2:-1 4:1 5:4 
0 0 1 1:1 2:-1 4:1 5:4 
1 0 0 1:4 4:1 5:2 
0 0 0.05574865876891086 2:-1 3:1 4:1 5:5 
0 0 0.4846530570921601 1:4 2:-1 4:1 5:5 
0 0 1 1:4 2:-1 4:1 5:5 
0 0 1 1:4 2:-1 4:1 5:3 
0 0 1 1:4 2:-1 4:1 5:4 
0 0 1 1:1 2:-1 4:1 5:2 
0 0 1 1:4 2:-1 4:1 5:4 
1 0 0 1:4 4:1 5:2 
0 0 1 1:4 2:-1 4:1 5:3 
0 0.1505357195668237 0 1:1 2:-2 5:4 
1 0 0 1:1 4:1 5:2 
0 0.2952646489366546 0 1:1 2:-2 5:2 
0 0 1 2:-1 5:1 
1 0 0.1698505414238774 1:1 4:1 5:1 
0 0.8908834307465086 0 1:4 2:-2 5:5 
0 1 1 1:4 2:-2 5:1 
0 0 1 1:1 2:-1 4:1 5:3 
0 0 1 1:4 2:-1 4:1 5:2 
0 1 0 1:1 2:-2 4:1 5:1 
0 1 1 1:4 2:-2 4:1 5:3 
1 0 0 1:1 4:1 5:3 
1 0 0 1:2 4:1 5:2 
0 0 1 1:2 2:-1 5:2 
0 1 1 1:3 2:-2 4:1 5:2 
0 1 1 1:3 2:-2 4:1 5:2 
0 0 0.6647296048709663 2:-1 3:1 4:1 5:5 
0 0 1 1:4 2:-1 4:1 5:6 
0.3666240446573246 0 0 1:4 5:7 
0 1 0 1:2 2:-2 4:1 5:2 
1 0 0 1:1 4:1 5:3 
0.9821559427483403 0 0 1:3 5:3 
1 0 0 1:1 5:2 
0 0 1 1:1 2:-1 5:3 
0 0 1 1:1 2:-1 4:1 5:3 
0 0 1 1:1 2:-1 4:1 5:4 
0 0 1 1:4 2:-1 4:1 5:4 
1 0 0 1:4 5:2 
1 0 0 1:4 5:2 
0 0 1 1:4 2:-1 4:1 5:2 
0.9511893061507783 0 0 1:4 5:9 
0 0 1 1:1 2:-1 5:2 
0 0 1 1:4 2:-1 5:7 
1 0 0 1:2 5:1 
0 1 1 1:2 2:-2 3:1 4:1 5:4 
1 0 1 1:2 3:1 4:1 5:5 
1 0 1 1:2 3:1 4:1 5:5 
1 0 0 1:1 5:2 
1 0 0 1:1 5:2 
0 0 1 1:2 2:-1 4:1 5:1 
0 0 1 1:2 2:-1 4:1 5:1 
1 0 0 1:1 5:2 
1 0 0 1:1 5:2 
0 0 1 1:1 2:-1 4:1 5:1 
0 0 1 1:1 2:-1 4:1 5:2 
0 0 1 1:1 2:-1 4:1 5:2 
0 1 0 1:2 2:-2 4:1 5:2 
0 1 0 1:2 2:-2 4:1 5:3 
0.01391417045503259 0 0 1:2 4:1 5:6 
1 0 0.09288900849933281 1:4 4:1 5:3 
0.5318201552265036 0 0 1:2 4:1 5:3 
0 0 1 2:-1 4:1 5:1 
0 0 1 2:-1 4:1 5:1 
0 0 1 2:-1 4:1 5:1 
0 0 1 2:-1 4:1 5:1 
1 0 0 1:1 4:1 5:3 
1 0 0 1:2 5:2 
1 0 0 1:4 5:2 
0 0 1 1:4 2:-1 4:1 5:3 
0 0 1 1:4 2:-1 4:1 5:4 
0 0 1 1:4 2:-1 4:1 5:5 
1 0 0 1:1 4:1 5:3 
0 0 1 1:1 2:-1 4:1 5:1 
0 0 1 1:1 2:-1 4:1 5:1 
0 1 0.6208676210714349 1:4 2:-2 4:1 5:4 
0 1 1 1:4 2:-2 4:1 5:4 
0 0 1 1:1 2:-1 4:1 5:3 
0 0.5028973054245455 0 1:1 2:-2 4:1 5:7 
0 0.1084293491445409 0 1:1 2:-2 4:1 5:5 
1 0 0 1:1 5:2 
1 0 0 1:1 5:2 
1 0 0 1:1 5:2 
1 0 0 1:2 4:1 5:2 
0.009750431304563597 0 0 1:4 4:1 5:4 
0 1 0 1:1 2:-2 4:1 5:7 
1 0 0 1:1 4:1 5:2 
1 0 0 1:1 4:1 5:3 
1 0 0 1:1 4:1 5:2 
1 0 0 1:1 4:1 5:2 
0.02047721197302919 0 0 1:4 5:3 
0 0 1 1:4 2:-1 4:1 5:5 
0.01582196462936352 0 0 1:1 5:3 
1 0 0 1:1 5:2 
0 0 1 1:2 2:-1 4:1 5:3 
0 0 1 1:2 2:-1 4:1 5:3 
0 0 1 1:2 2:-1 4:1 5:2 
0 0 1 1:2 2:-1 4:1 5:2 
1 0 0 1:1 5:2 
1 0 0 1:1 5:2 
0 0 1 1:1 2:-1 4:1 5:3 
0 0 1 1:1 2:-1 4:1 5:3 
0 0 1 1:1 2:-1 4:1 5:2 
1 0 0 1:1 5:2 
1 0 0 1:1 4:1 5:2 
1 0 0 1:1 4:1 5:2 
0 1 0 1:2 2:-2 5:3 
0 1 0 1:2 2:-2 5:1 
0 0 1 1:4 2:-1 4:1 5:4 
0 0 1 1:4 2:-1 4:1 5:4 
0 0 1 1:4 2:-1 4:1 5:4 
0 0 1 1:4 2:-1 4:1 5:4 
0 0 1 1:4 2:-1 4:1 5:4 
0 0 1 1:4 2:-1 4:1 5:4 
0.005052461797008106 0 1 2:-1 3:1 5:4 
0 0 1 1:4 2:-1 5:3 
0 0 1 1:4 2:-1 5:4 
0 0 1 1:4 2:-1 5:2 
1 0 0 1:4 5:2 
0 0 1 1:1 2:-1 5:1 
1 0 0 1:4 4:1 5:2 
0.001508461470161786 0 1 1:4 2:-1 4:1 5:1 
0 0 1 1:4 2:-1 4:1 5:4 
0 0 1 1:4 2:-1 4:1 5:4 
0 0 0.998110711122895 1:4 2:-1 4:1 5:7 
1 0 0 1:4 4:1 5:3 
0.003422155669513622 1 1 1:2 2:-1 3:1 4:1 5:1 
0.6686990163840084 1 1 1:2 2:-1 3:1 4:1 5:1 
0 1 0.7372522398824226 1:2 2:-1 4:1 5:6 
0 0 1 1:1 2:-1 4:1 5:4 
0.7620851440416089 0 1 2:-1 3:1 4:1 5:5 
0 0 0.3991367495425043 1:1 2:-1 4:1 5:6 
1 0 0 1:1 4:1 5:3 
0 1 0 1:2 2:-2 5:7 
0 1 0 1:1 2:-2 5:7 
1 0 0 1:1 5:2 
1 0 0 1:2 5:3 
0 1 0 1:2 2:-2 4:1 5:3 
1 0 0 1:1 5:2 
0.01748453093741614 0 0 1:3 5:5 
1 0 0 1:1 5:2 
0 0 1 1:2 2:-1 5:2 
0 0 1 1:1 2:-1 5:2 
0 0 1 1:1 2:-1 5:1 
0.04698980302476242 0 0 1:2 5:4 
0 0.08372626386194677 1 1:2 2:-1 5:1 
0 1 0 1:2 2:-2 5:3 
0 1 0 1:2 2:-2 5:1 
0 1 0 1:2 2:-2 5:4 
0 1 0 1:2 2:-2 5:3 
0 1 0 1:2 2:-2 5:1 
0 1 0 1:1 2:-2 5:7 
0 0 1 1:1 2:-1 4:1 5:2 
1 0 1 1:4 5:1 
0 0 1 1:4 2:-1 4:1 5:5 
1 0 0 1:2 5:1 
0 0.02205668306775525 0 1:2 2:-1 4:1 5:4 
1 0 0 1:1 5:2 
1 0 0 1:1 5:2 
1 0 0 1:1 5:2 
0 1 1 1:1 2:-2 3:1 4:1 5:3 
0 1 1 1:1 2:-2 3:1 4:1 5:3 
0 1 0 1:2 2:-2 4:1 5:2 
0 1 0 1:2 2:-2 4:1 5:2 
0 1 0 1:2 2:-2 4:1 5:2 
0 1 0 1:2 2:-2 4:1 5:2 
0 1 0 1:2 2:-2 4:1 5:2 
0 1 0 1:2 2:-2 4:1 5:1 
0 0 1 1:1 2:-1 4:1 5:4 
1 0 0 1:2 5:1 
0 1 0 1:2 2:-2 5:2 
0 1 0 1:2 2:-2 5:3 
0 1 0 1:1 2:-2 5:7 
0.04697431233680271 0 0 1:1 5:5 
0 1 0 1:2 2:-2 4:1 5:4 
1 0 0 1:4 4:1 5:3 
0 0 1 1:1 2:-1 4:1 5:4 
1 0 0 1:1 4:1 5:3 
0 0 1 1:4 2:-1 4:1 5:4 
0 1 0 1:3 2:-2 5:5 
0 0 1 1:1 2:-1 5:3 
1 0 0 1:2 4:1 5:2 
1 0 0 1:1 5:2 
1 0 0 1:1 4:1 5:2 
1 0 0 1:1 5:2 
1 0 0 1:1 5:1 
1 0 0 1:1 5:2 
1 0 0 1:1 5:2 
0 0 1 1:1 2:-1 4:1 5:2 
0 0 1 1:1 2:-1 4:1 5:3 
0 0 1 1:1 2:-1 4:1 5:2 
0 0 1 1:1 2:-1 4:1 5:2 
0 0 1 1:1 2:-1 4:1 5:2 
0 0 1 1:3 2:-1 4:1 5:2 
0 0 1 1:1 2:-1 4:1 5:2 
0 0 1 1:1 2:-1 4:1 5:3 
0 0 1 1:1 2:-1 4:1 5:4 
0 0 1 1:1 2:-1 5:3 
0 0 1 1:1 2:-1 5:2 
0 1 0 1:3 2:-2 5:3 
0 0 1 1:1 2:-1 5:1 
0 1 0 1:1 2:-2 5:4 
1 0 0 1:1 5:2 
0 1 0 1:1 2:-2 5:6 
0 0.0122229077673061 0 1:1 2:-2 5:9 
0 0.7816271498256355 0 1:1 2:-2 5:9 
0 1 0 1:1 2:-2 5:8 
0 1 0 1:2 2:-2 5:1 
0 1 0 1:1 2:-2 5:4 
0 0 1 1:1 2:-1 4:1 5:6 
0 0 1 1:1 2:-1 4:1 5:6 
0 1 1 1:1 2:-2 5:1 
0 1 0 1:1 2:-2 5:4 
1 0 0 1:1 4:1 5:3 
0 0.7461693131496853 0 1:1 2:-2 5:2 
0 1 0 1:2 2:-2 5:2 
0 1 0 1:2 2:-2 5:2 
0 0 1 1:2 2:-1 4:1 5:3 
1 0 0 1:1 4:1 5:2 
1 0 0 1:3 4:1 5:2 
0 0 1 1:1 2:-1 4:1 5:2 
0 0 1 1:1 2:-1 4:1 5:2 
1 0 0 1:1 4:1 5:3 
1 0 0 1:1 4:1 5:3 
0 0 1 1:1 2:-1 4:1 5:2 
0 1 0 1:2 2:-2 5:4 
0 1 0 1:2 2:-2 5:5 
0 1 0 1:2 2:-2 5:1 
0 0 1 1:4 2:-1 4:1 5:3 
1 0 0 1:1 5:2 
1 0 0 1:1 4:1 5:2 
1 0 0 1:1 4:1 5:3 
1 0 0 1:1 4:1 5:2 
1 0 0 1:1 4:1 5:2 
1 0 0 1:4 4:1 5:3 
1 0 0.8445457341285636 1:4 4:1 5:1 
1 0 0 1:4 4:1 5:3 
0 0 1 1:4 2:-1 5:4 
0 0 1 1:1 2:-1 4:1 5:2 
1 0 0 1:3 4:1 5:2 
0 1 0 1:1 2:-2 5:2 
0 1 0 1:2 2:-2 5:1 
0 1 0 1:2 2:-2 5:2 
0 1 0 1:2 2:-2 5:2 
0 1 0 1:2 2:-2 5:2 
0 0 1 1:1 2:-1 5:2 
0 0 1 1:1 2:-1 5:3 
0 0 1 1:1 2:-1 5:2 
0 1 0 1:2 2:-2 4:1 5:3 
0 1 0 1:3 2:-2 4:1 5:3 
1 0 0 1:1 5:2 
1 0 0 1:1 5:2 
1 0 0 1:1 5:1 
1 0 0 1:1 5:1 
1 0 0 1:1 4:1 5:1 
0.3610564964475101 0 0 1:1 4:1 5:5 
1 0 0 1:1 5:2 
1 0 0 1:1 5:2 
1 0 0 1:1 5:2 
0 1 0 1:2 2:-2 4:1 5:4 
1 0 0 1:2 4:1 5:2 
0 1 0 1:2 2:-2 4:1 5:5 
0 1 0 1:2 2:-2 4:1 5:9 
1 0 0 1:1 4:1 5:5 
1 0 0 1:3 5:2 
1 0 0 1:2 5:3 
0 0 1 1:1 2:-1 5:2 
0 0 1 1:1 2:-1 5:2 
0 1 1 1:1 2:-2 5:1 
0 1 0 1:2 2:-2 5:5 
0 1 0 1:1 2:-2 5:4 
0 0 1 1:4 2:-1 4:1 5:2 
1 0 0 1:4 4:1 5:2 
0 0 1 1:1 2:-1 4:1 5:4 
1 0 0.05617724991938677 1:1 5:1 
0 1 1 1:1 2:-2 5:1 
0 1 0 1:1 2:-2 5:6 
0 1 0 1:1 2:-2 5:4 
1 0 0 1:1 4:1 5:3 
1 0 0 1:1 4:1 5:3 
0 0 1 1:1 2:-1 4:1 5:3 
0 0 1 1:1 2:-1 4:1 5:3 
0 0 0.3532881132425774 1:1 2:-1 4:1 5:5 
0 0 1 1:2 2:-1 4:1 5:1 
0 0 1 1:2 2:-1 4:1 5:1 
1 0 0 1:1 4:1 5:2 
1 0 0 1:2 4:1 5:3 
1 0 0 1:1 4:1 5:3 
1 0 0 1:1 4:1 5:3 
1 0 0 1:1 4:1 5:2 
1 0 0 1:1 4:1 5:3 
0 1 0 1:1 2:-2 4:1 5:7 
0 0 1 1:4 2:-1 4:1 5:3 
0 0 1 1:4 2:-1 4:1 5:2 
0 0 1 1:4 2:-1 4:1 5:2 
1 0 0 1:1 5:2 
0 0 1 1:1 2:-1 4:1 5:3 
1 0 0 1:1 4:1 5:2 
1 0 0 1:1 5:2 
1 0 0 1:1 5:2 
0 1 0 1:1 2:-2 4:1 5:1 
1 0 0 1:1 5:2 
0 1 0 1:4 2:-2 5:3 
0 0 1 1:1 2:-1 4:1 5:3 
0 0 1 1:1 2:-1 4:1 5:3 
0 0 1 1:4 2:-1 4:1 5:4 
0 0.1383492816985541 1 1:3 2:-1 4:1 5:1 
0 0.6715222305311378 1 1:3 2:-1 4:1 5:1 
1 0 0 1:2 4:1 5:2 
1 0 0 1:4 4:1 5:3 
0 0 1 1:4 2:-1 4:1 5:3 
0 0 1 1:4 2:-1 4:1 5:3 
1 0 0 1:1 4:1 5:3 
1 0 0 1:1 4:1 5:3 
1 0 0 1:2 5:2 
1 0 1 1:1 5:1 
0 0 1 1:1 2:-1 4:1 5:3 
1 0 0 1:1 4:1 5:3 
1 0 0 1:2 5:3 
0.5128123626688357 0 0 1:3 5:5 
1 0 0 1:1 4:1 5:2 
1 0 0 1:1 4:1 5:3 
0 0.2783811980005883 0 1:1 2:-2 4:1 5:4 
0 1 0 1:2 2:-2 5:8 
0 1 0 1:2 2:-2 5:3 
0 0 1 1:1 2:-1 4:1 5:4 
0 0 1 1:1 2:-1 4:1 5:3 
0 0 1 1:1 2:-1 4:1 5:2 
0 0 1 1:1 2:-1 4:1 5:3 
0 0 1 1:1 2:-1 4:1 5:2 
0 0 1 1:1 2:-1 4:1 5:2 
1 0 0 1:1 4:1 5:2 
0 0 1 1:1 2:-1 5:2 
0 0 1 1:4 2:-1 5:3 
1 0 0 1:1 4:1 5:2 
0 0 1 1:4 2:-1 4:1 5:4 
1 0 0 1:4 4:1 5:2 
1 0 0 1:4 4:1 5:2 
0 0.1354806504826092 0 1:1 2:-2 4:1 5:8 
0 1 0 1:2 2:-2 5:3 
0 1 0 1:2 2:-2 5:1 
0 1 0.8079586638312176 1:1 2:-2 4:1 5:1 
0.2754581401316797 0 0 1:4 5:3 
0.01409027502014225 0 0 1:4 5:5 
0 0 1 1:1 2:-1 4:1 5:4 
1 0 0 1:1 4:1 5:2 
1 0 0 1:1 5:2 
1 0 0 1:1 5:2 
1 0 0 1:2 5:2 
0 0 1 1:1 2:-1 4:1 5:4 
0 0 1 1:1 2:-1 4:1 5:4 
0 1 0 1:1 2:-2 4:1 5:4 
1 0 0 1:2 4:1 5:2 
1 0 0 1:1 4:1 5:3 
0 0 1 1:1 2:-1 4:1 5:2 
0 0 1 1:1 2:-1 4:1 5:3 
0 0 1 1:1 2:-1 4:1 5:4 
0 0 1 1:1 2:-1 4:1 5:4 
1 0 0 1:1 4:1 5:2 
1 0 0 1:1 5:2 
0 1 1 1:3 2:-2 4:1 5:2 
0 1 0.1324776404099201 1:3 2:-2 4:1 5:2 
0 0 1 1:4 2:-1 5:4 
1 0 0 1:4 4:1 5:2 
0 0 1 1:4 2:-1 5:2 
0 0 0.8813203733871432 2:-1 3:1 5:2 
0 0 1 2:-1 3:1 5:2 
1 0 0 1:1 5:2 
0 0 1 1:2 2:-1 4:1 5:3 
1 0 0 1:1 5:2 
0 1 0 1:2 2:-2 5:6 
0 1 0 1:2 2:-2 5:1 
0 1 0 1:2 2:-2 5:1 
0 1 0 1:3 2:-2 5:3 
0 1 0 1:1 2:-2 5:2 
0 1 0 1:3 2:-2 5:2 
0 0 1 1:4 2:-1 5:4 
1 0 0 1:1 4:1 5:3 
1 0 0 1:1 5:2 
1 0 0 1:2 5:3 
0 1 0 1:2 2:-2 5:3 
0 1 0 1:2 2:-2 5:3 
1 0 0 1:2 4:1 5:3 
1 0 0 1:4 4:1 5:2 
1 0 0.9121479361548676 1:4 4:1 5:2 
0 0 1 1:4 2:-1 4:1 5:4 
0 0 1 1:4 2:-1 4:1 5:3 
0 1 1 1:3 2:-1 5:1 
0 0 1 1:4 2:-1 5:4 
0 0 1 1:4 2:-1 4:1 5:3 
0 0 1 1:1 2:-1 4:1 5:2 
0 0 1 1:1 2:-1 4:1 5:2 
0 0 1 1:4 2:-1 4:1 5:4 
0.1433442141564516 0 0 2:-1 3:1 5:5 
0 0 1 1:1 2:-1 5:2 
0 1 0 1:1 2:-2 5:2 
0.4566059712420716 0 1 1:2 2:-1 5:1 
0.1132850070872476 0.70648254362301 1 1:2 2:-1 5:1 
1 0 0 1:1 4:1 5:3 
1 0 0 1:1 4:1 5:2 
0 0 1 1:1 2:-1 4:1 5:4 
0 1 0 1:2 2:-2 5:5 
1 0 0 1:1 4:1 5:2 
1 0 0 1:1 5:3 
1 0 0 1:1 5:2 
1 0 0 1:3 5:2 
1 0 1 1:1 5:1 
1 0 0 1:2 5:2 
1 0 0 1:2 5:3 
0 0 1 1:1 2:-1 4:1 5:3 
0 0 1 1:1 2:-1 4:1 5:4 
0 1 0 1:2 2:-2 5:2 
0 1 0 1:2 2:-2 5:3 
0 1 0 1:2 2:-2 5:4 
0 1 0 1:2 2:-2 5:4 
0 1 0 1:2 2:-2 5:5 
0 1 0 1:2 2:-2 5:3 
0 1 0 1:2 2:-2 5:1 
0 1 0 1:2 2:-2 5:4 
0 1 0 1:2 2:-2 5:2 
0 1 0 1:2 2:-2 5:4 
0 1 0 1:2 2:-2 5:1 
0 1 0 1:2 2:-2 5:4 
0 1 0 1:2 2:-2 5:8 
0 1 0 1:2 2:-2 5:6 
0 1 0 1:2 2:-2 5:2 
1 0 0 1:1 5:3 
1 0 1 1:1 5:1 
1 0 0 1:4 5:3 
1 0 1 1:4 5:1 
1 0 0 1:4 5:2 
0 0 1 1:4 2:-1 5:2 
0.6985323549917976 0 0 1:4 5:7 
1 0 0 1:1 5:2 
1 0 0 1:4 5:2 
0 0 1 1:4 2:-1 4:1 5:5 
0 0 1 1:4 2:-1 4:1 5:5 
0 0 1 1:4 2:-1 4:1 5:5 
0 0 1 1:4 2:-1 4:1 5:5 
1 0 0 1:1 4:1 5:3 
0 0 1 1:1 2:-1 4:1 5:4 
1 0 0 1:1 5:3 
1 0 0 1:2 4:1 5:3 
0 0 0.210985842391346 1:2 2:-1 5:3 
0 0 1 1:2 2:-1 5:3 
0 0 1 1:2 2:-1 5:3 
0 0 1 1:2 2:-1 5:2 
0 0 1 1:1 2:-1 4:1 5:1 
0.2897138318430274 0 1 1:1 2:-1 4:1 5:1 
1 0 0 1:3 4:1 5:2 
0 0 1 1:4 2:-1 4:1 5:4 
1 0 1 1:4 4:1 5:2 
0 0 1 1:4 2:-1 4:1 5:3 
1 0 1 1:1 2:-1 4:1 5:1 
1 0 1 1:1 2:-1 4:1 5:1 
1 0 0 1:3 4:1 5:2 
1 0 0 1:1 4:1 5:2 
1 0 0 1:1 4:1 5:3 
1 0 0 1:1 5:2 
1 0 0 1:1 5:2 
1 0 0 1:2 5:2 
1 0 0 1:2 4:1 5:2 
0 0 1 1:1 2:-1 5:2 
0 0 1 1:1 2:-1 4:1 5:3 
0 0 1 1:1 2:-1 4:1 5:2 
0 0 1 1:1 2:-1 4:1 5:3 
0 0 1 1:1 2:-1 4:1 5:3 
0 0 1 1:4 2:-1 4:1 5:4 
0 0 1 1:1 2:-1 4:1 5:3 
0 0 1 1:1 2:-1 5:2 
0 0 1 1:1 2:-1 4:1 5:2 
0 0 1 1:1 2:-1 4:1 5:2 
0.8698419575421008 0.3986828155597187 1 1:4 2:-1 4:1 5:1 
0 0 1 1:4 2:-1 4:1 5:2 
0 0 1 1:4 2:-1 4:1 5:2 
1 0 1 1:4 3:1 5:3 
0 0 1 2:-1 4:1 5:1 
1 0 0 1:1 4:1 5:2 
0 1 0 1:2 2:-2 5:2 
0 1 0 1:2 2:-2 5:5 
0 1 0 1:2 2:-2 5:3 
0 0 1 1:1 2:-1 4:1 5:6 
0.1083879629832537 0 0 1:1 4:1 5:5 
1 0 0 1:2 5:2 
1 0 0 1:1 4:1 5:2 
1 0 0 1:1 4:1 5:3 
0 1 0 1:2 2:-2 5:2 
0 1 0 1:2 2:-2 5:2 
1 0 0 1:1 4:1 5:2 
1 0 0 1:1 4:1 5:3 
0 0 1 2:-1 4:1 5:1 
0 0 1 2:-1 4:1 5:1 
1 0 0 1:1 4:1 5:2 
1 0 0 1:4 4:1 5:3 
1 0 0 1:1 4:1 5:3 
0 0 1 1:4 2:-1 4:1 5:3 
0 0 1 1:4 2:-1 4:1 5:3 
0 0 1 1:4 2:-1 4:1 5:3 
0 0 1 1:4 2:-1 4:1 5:3 
0 0 1 1:4 2:-1 4:1 5:3 
0 0 1 1:1 2:-1 4:1 5:2 
1 0 0 1:1 5:3 
1 0 0 1:1 5:3 
0 0 1 1:1 2:-1 4:1 5:4 
1 0 1 1:1 5:1 
0.1749727518069502 0 0 5:1 
1 0 0 5:1 
1 0 0 1:1 5:2 
0 0.1585215569629075 0.6822281711224494 1:2 2:-1 4:1 5:4 
0 0 0.02791233401771008 2:-1 3:1 4:1 5:2 
0 0.9323305689603518 0 1:2 2:-1 4:1 5:4 
0 1 0 1:3 2:-2 4:1 5:5 
0 0 1 1:1 2:-1 4:1 5:6 
0 1 0 1:1 2:-2 4:1 5:4 
0 0 1 1:2 2:-1 4:1 5:2 
0 0 1 1:2 2:-1 4:1 5:2 
1 0 0 1:1 5:2 
1 0 0 1:1 5:2 
0 0 1 1:3 2:-1 5:3 
0 1 0 1:3 2:-2 5:7 
0 0.843105229827379 0 1:4 2:-2 5:7 
1 0 0 1:1 4:1 5:3 
0 1 0 1:2 2:-2 5:2 
0 1 0 1:2 2:-2 5:1 
0 1 0 1:2 2:-2 5:4 
0 1 0 1:2 2:-2 5:2 
0 1 0 1:2 2:-2 5:5 
0 1 0 1:2 2:-2 5:1 
0 0 1 1:1 2:-1 4:1 5:2 
0 0.02898075873016341 0 1:2 2:-1 4:1 5:5 
1 0 0 1:1 5:2 
0 0 1 1:1 2:-1 5:1 
0 0 1 1:1 2:-1 5:2 
1 0 0 1:1 5:2 
1 0 0 1:1 4:1 5:2 
0 0 1 1:4 2:-1 5:6 
1 0 1 1:1 5:1 
0 1 0 1:1 2:-2 4:1 5:4 
1 0 0 1:1 4:1 5:3 
0 1 0 1:2 2:-2 4:1 5:2 
0 1 0 1:2 2:-2 5:3 
0 1 1 1:1 2:-2 4:1 5:1 
1 0 0 1:1 5:2 
0 0.5533735095864145 0 1:1 2:-2 4:1 5:3 
1 0 0 1:1 5:3 
1 0 0 1:1 5:3 
0 1 0 1:2 2:-2 5:5 
0 1 0 1:2 2:-2 5:1 
0 0 0.870995859353684 1:1 2:-1 5:5 
0 0 1 1:1 2:-1 5:5 
0 0.2837299545319209 0 1:2 2:-1 5:5 
0 0 1 2:-1 3:1 5:2 
0 1 0 1:2 2:-2 5:1 
0 1 0 1:2 2:-2 5:1 
0 1 0 1:2 2:-2 5:2 
0 1 0 1:2 2:-2 5:4 
0 1 0 1:2 2:-2 5:5 
1 0 0 1:1 5:2 
0 0 1 1:4 2:-1 4:1 5:3 
0 0 1 2:-1 3:1 4:1 5:2 
0 0 1 2:-1 3:1 4:1 5:2 
0 0 1 1:1 2:-1 5:2 
0 0 1 1:1 2:-1 5:2 
0 0 1 1:1 2:-1 5:2 
0 0 1 1:1 2:-1 5:3 
0 0 1 1:4 2:-1 5:3 
1 0 0 1:3 4:1 5:2 
0 0 1 1:4 2:-1 5:2 
0 0 1 2:-1 3:1 5:2 
0 1 0 1:3 2:-2 5:3 
0 0 1 1:1 2:-1 5:5 
0 0 1 1:1 2:-1 4:1 5:4 
1 0 0 1:1 4:1 5:3 
1 0 0 1:1 4:1 5:3 
0 0.6580622865289434 0 1:2 2:-1 5:4 
1 0 0.1055906671674066 1:4 4:1 5:2 
0 0 1 1:4 2:-1 5:4 
1 0 0 1:4 4:1 5:4 
0.2016729673422102 0 0 1:2 4:1 5:6 
1 0 0 1:1 4:1 5:2 
1 0 0 1:1 4:1 5:3 
0 0 1 1:1 2:-1 3:1 4:1 5:3 
0 0 1 1:1 2:-1 3:1 4:1 5:3 
0 0 1 1:1 2:-1 5:5 
0 1 0 1:1 2:-2 5:4 
0 0.0757309329901472 1 1:1 2:-2 5:1 
1 0 0 1:1 5:3 
1 0 0 1:1 4:1 5:3 
0 0 0.8152086127106295 2:-1 4:1 5:2 
0 0 0.3444978367398504 2:-1 4:1 5:2 
0 0 1 1:4 2:-1 5:6 
0.04059718555453045 0 0 1:1 5:14 
0.4953853409513015 0 0 1:1 5:3 
1 0 0 1:2 5:4 
1 0 0 1:1 5:2 
1 0 0 1:1 5:2 
1 0 0 1:2 5:4 
1 0 0 1:1 5:2 
1 0 0 1:1 5:2 
0 1 0 1:1 2:-2 5:2 
0 1 0 1:2 2:-2 5:3 
0 1 0 1:2 2:-2 5:2 
0 1 0 1:2 2:-2 5:1 
0 0.02963565536197503 1 1:2 2:-1 5:3 
0 1 0 1:2 2:-2 5:2 
0 1 0 1:2 2:-2 5:1 
0.1788395263618193 0 0 1:4 4:1 5:4 
0 0 1 1:4 2:-1 4:1 5:2 
0 0 1 1:4 2:-1 4:1 5:3 
0.2490014170257494 0 1 2:-1 3:1 5:4 
0 0 1 2:-1 3:1 4:1 5:2 
0 1 0 1:1 2:-2 5:4 
0 1 0 1:4 2:-2 5:3 
0 0 1 1:1 2:-1 5:3 
1 0 0 1:2 4:1 5:3 
0 0 1 1:4 2:-1 4:1 5:2 
0 0 1 1:4 2:-1 4:1 5:2 
0 0 0.7402601498034713 2:-1 3:1 4:1 5:1 
0 0 1 2:-1 3:1 4:1 5:1 
0 0 1 2:-1 3:1 4:1 5:2 
0 1 0 1:2 2:-1 5:4 
0 1 0 1:2 2:-2 5:4 
1 0 0 1:4 5:3 
1 0 0 1:4 5:3 
1 0 0 1:2 5:3 
1 0 0 1:4 5:2 
0.9888971592285992 0 0 1:2 5:4 
1 0 0 1:4 5:2 
0 0 1 1:2 2:-1 4:1 5:3 
0 0 1 1:2 2:-1 4:1 5:3 
1 0 0 1:1 4:1 5:3 
0 0 1 2:-1 3:1 4:1 5:1 
0 0 0.5486549737309591 2:-1 3:1 4:1 5:1 
0 0 1 1:3 2:-1 4:1 5:3 
0 0 1 1:4 2:-1 4:1 5:5 
0 0 1 1:4 2:-1 4:1 5:4 
0 0 1 1:4 2:-1 4:1 5:5 
0 0 1 1:4 2:-1 4:1 5:3 
0 0 1 1:4 2:-1 4:1 5:4 
1 0 0 1:1 5:2 
1 0 0 1:1 5:2 
0.4678326017432763 0 0 1:1 5:5 
1 0 0 1:1 5:5 
1 0 0 1:1 5:5 
1 0 0 1:1 5:2 
0 1 0 1:1 2:-2 4:1 5:4 
0 1 0 1:4 2:-2 4:1 5:7 
0 1 0 1:3 2:-2 4:1 5:3 
1 0 0 1:3 4:1 5:2 
0 0.998430458923273 0 1:1 2:-2 5:3 
0.6683744334282152 0 0 1:1 4:1 5:6 
0 1 0 1:2 2:-2 5:4 
0 1 0 1:2 2:-2 5:3 
0 1 0 1:1 2:-2 4:1 5:3 
1 0 0 1:1 4:1 5:2 
0 1 0 1:2 2:-2 4:1 5:2 
0 1 0 1:2 2:-2 5:2 
0 1 0 1:2 2:-2 5:3 
0 0 1 1:1 2:-1 4:1 5:4 
1 0 0 1:2 4:1 5:3 
0 1 0 1:2 2:-2 5:2 
0 1 0 1:2 2:-2 5:1 
1 0 0 1:2 5:3 
1 0 0 1:2 5:2 
1 0 0.5302761623796554 1:4 4:1 5:3 
1 0 0 1:2 4:1 5:3 
0 1 0 1:2 2:-2 5:2 
0 1 0 1:2 2:-2 5:1 
1 0 0 1:2 5:1 
1 0 0 1:1 5:2 
1 0 1 1:4 4:1 5:3 
1 0 0 1:2 4:1 5:3 
0 1 0 1:2 2:-2 5:2 
0 1 0 1:2 2:-2 5:1 
0 0.02813072004525828 1 1:4 2:-1 3:1 4:1 5:2 
0.7247688902268414 0 1 1:4 2:-1 3:1 4:1 5:2 
1 0 1 1:4 4:1 5:3 
1 0 0 1:4 5:2 
0.2545419889198473 0 0 1:4 5:5 
0 0 1 1:4 2:-1 4:1 5:4 
0 0 1 1:4 2:-1 4:1 5:5 
1 0 0 1:2 4:1 5:3 
1 0.4035921791125804 1 1:4 2:-1 3:1 4:1 5:2 
0.8465609817118557 1 1 1:4 2:-1 3:1 4:1 5:2 
1 0 1 1:4 4:1 5:3 
0.5384030886843127 0 0 1:4 4:1 5:5 
0 0 1 1:4 2:-1 4:1 5:4 
0 0 1 1:4 2:-1 4:1 5:5 
0 1 0 1:3 2:-2 4:1 5:3 
0 0 1 1:2 2:-1 4:1 5:1 
0 0.4309702740291557 1 1:2 2:-1 4:1 5:1 
0 0 1 1:1 2:-1 4:1 5:3 
1 0 0 1:1 5:2 
1 0 0 1:1 5:2 
0 1 0 1:3 2:-2 5:4 
0 1 0 1:3 2:-2 5:7 
1 0 0 1:1 5:5 
1 0 0 1:1 5:2 
1 0 0 1:1 5:5 
1 0 0 1:1 5:5 
0.9437972335990951 0 0 1:1 5:4 
1 0 0 1:1 5:2 
1 0 0 1:1 5:4 
1 0 0 1:1 5:4 
1 0 0 1:1 5:4 
1 0 0 1:3 4:1 5:1 
0 1 0 1:3 2:-2 5:4 
0 1 0 1:3 2:-2 5:5 
0.1811284523386055 1 0 1:3 2:-1 5:8 
0 1 0 1:3 2:-2 5:6 
0 0.7638298471581731 0 1:4 2:-2 5:7 
0 0 1 1:4 2:-1 4:1 5:3 
0 0 1 1:1 2:-1 5:3 
0 0 1 1:4 2:-1 5:2 
0 0 1 1:4 2:-1 5:3 
0 0 1 1:4 2:-1 5:4 
1 0 1 2:-1 3:1 5:4 
0 0 1 1:3 2:-1 5:3 
0 0 1 1:3 2:-1 5:3 
1 0 0 1:1 4:1 5:2 
0 0 1 1:2 2:-1 5:2 
0 0 1 2:-1 5:1 
0 0 1 1:1 2:-1 5:3 
1 0 0 1:1 5:2 
0 0 1 1:1 2:-1 5:3 
0 0 1 1:1 2:-1 5:3 
1 0 0 1:2 4:1 5:3 
0 0 1 1:4 2:-1 4:1 5:5 
0 0 1 2:-1 3:1 4:1 5:2 
1 0.08158864179981373 1 1:4 2:-1 4:1 5:1 
0 0 1 1:1 2:-1 4:1 5:2 
0 0 1 1:1 2:-1 4:1 5:4 
0 1 0 1:2 2:-2 4:1 5:2 
0 1 0 1:2 2:-2 4:1 5:3 
0 1 0 1:2 2:-2 4:1 5:3 
1 0 1 1:1 2:-1 4:1 5:1 
0 0 1 2:-1 3:1 4:1 5:2 
0 0 1 1:1 2:-1 4:1 5:2 
0 0 1 1:1 2:-1 4:1 5:3 
0 0 1 1:1 2:-1 4:1 5:3 
0 0 1 1:4 2:-1 4:1 5:3 
0 0 1 1:4 2:-1 4:1 5:3 
1 0 0 1:3 4:1 5:2 
0 1 0 1:2 2:-2 5:2 
0 0 1 1:4 2:-1 5:2 
0 0 1 1:4 2:-1 5:2 
0 0 1 1:4 2:-1 5:3 
0 0 1 1:4 2:-1 5:2 
0 0 1 1:4 2:-1 5:3 
1 0 0 1:4 5:3 
0 0 1 1:4 2:-1 5:2 
0 0 1 1:3 2:-1 5:2 
0 0 1 1:3 2:-1 5:2 
0 1 0 1:2 2:-2 5:1 
0 1 0 1:2 2:-2 5:1 
0 0 1 1:4 2:-1 5:3 
0 0 1 1:4 2:-1 5:2 
0 0.3295332949922147 1 1:3 2:-1 3:1 4:1 5:2 
1 0 0 1:1 4:1 5:3 
0 1 0 1:1 2:-2 4:1 5:3 
1 0 0 1:1 5:2 
1 0 0 1:1 5:2 
0 1 0 1:1 2:-2 4:1 5:3 
1 0 0 1:1 5:5 
1 0 0 1:1 5:2 
0 0 1 1:1 2:-1 4:1 5:2 
1 0 0 1:2 5:2 
1 0 0 1:1 5:2 
0 0 1 1:1 2:-1 4:1 5:6 
1 0 0 5:1 
1 0 0 5:1 
1 0 0 1:1 5:4 
0 0 1 1:1 2:-1 5:3 
0 0 0.9787958384110607 1:1 2:-1 5:5 
0 0 1 1:4 2:-1 4:1 5:4 
0 0 1 1:1 2:-1 4:1 5:4 
0 0 1 1:1 2:-1 4:1 5:4 
0 0 1 1:4 2:-1 4:1 5:3 
0 0 1 1:3 2:-1 4:1 5:2 
0 0 1 1:4 2:-1 4:1 5:3 
0 0 1 1:3 2:-1 4:1 5:2 
0 0 1 1:3 2:-1 4:1 5:2 
1 0 0 1:1 4:1 5:2 
0 0 1 1:1 2:-1 4:1 5:2 
0 0 1 1:1 2:-1 4:1 5:2 
1 0 0 1:1 4:1 5:3 
1 0 0 1:1 4:1 5:2 
0 0 1 1:1 2:-1 4:1 5:2 
0 1 0 1:2 2:-2 5:1 
1 0 0 1:1 4:1 5:3 
1 0 0 1:2 4:1 5:3 
1 0 0 1:1 4:1 5:3 
1 0 0 1:1 4:1 5:3 
1 0 0 1:1 5:2 
1 0 0 1:1 5:4 
1 0 0 1:1 5:5 
1 0 0 1:1 5:5 
1 0 0 1:1 5:2 
0 0 1 1:1 2:-1 5:1 
1 0 0 1:1 5:4 
0.3400853437087801 0 0 1:1 5:4 
1 0 0 1:1 5:2 
0 1 0 1:2 2:-2 5:3 
0 1 0 1:2 2:-2 5:1 
0 0.3413585229591455 0 1:1 2:-2 5:4 
0 1 0 1:2 2:-2 5:3 
0 1 0 1:2 2:-2 5:3 
0 1 1 1:3 2:-1 4:1 5:1 
0 0 1 1:4 2:-1 4:1 5:2 
0 0 1 1:4 2:-1 4:1 5:2 
0 0 1 1:3 2:-1 4:1 5:2 
0 0 1 1:4 2:-1 4:1 5:5 
0 0 1 2:-1 4:1 5:1 
0 0 1 2:-1 4:1 5:1 
1 0 0 1:1 4:1 5:3 
0 0.5451551066878101 0 1:1 2:-2 5:3 
1 0 0 1:1 4:1 5:2 
1 0 0 1:4 4:1 5:5 
0 1 1 1:1 2:-2 4:1 5:1 
0 1 1 1:1 2:-2 4:1 5:1 
1 0 0 1:1 4:1 5:2 
0 0 1 1:3 2:-1 4:1 5:2 
0 0 1 2:-1 3:1 4:1 5:2 
0 0 1 1:1 2:-1 4:1 5:3 
1 0 0 1:1 4:1 5:3 
0 0 1 1:3 2:-1 4:1 5:4 
0 0 1 2:-1 3:1 4:1 5:2 
0.5811887700994242 0 0 1:3 4:1 5:8 
0 0 0.8999174351675101 1:1 2:-1 4:1 5:6 
0 1 0 1:3 2:-2 5:4 
0 1 0 1:3 2:-2 5:3 
0 1 0 1:1 2:-2 5:7 
0 1 0 1:1 2:-2 5:6 
1 0 0 1:1 4:1 5:3 
0 0 0.8187823639026884 2:-1 3:1 4:1 5:3 
0 0 1 1:1 2:-1 4:1 5:3 
0 0 1 1:1 2:-1 4:1 5:3 
0 0 1 1:1 2:-1 5:2 
0 0 1 1:1 2:-1 5:3 
0 0 1 1:1 2:-1 5:3 
0 1 0 1:3 2:-2 5:2 
0.8107788765241976 0 0 1:3 5:3 
0.2805129748962872 0 0 1:4 5:4 
0 1 0 1:4 2:-2 5:3 
0 0 1 1:4 2:-1 4:1 5:2 
1 0 0 1:1 4:1 5:3 
1 0 0 1:1 4:1 5:3 
0 1 0 1:1 2:-2 4:1 5:3 
0 0 1 1:1 2:-1 4:1 5:4 
0 0 0.4267872799702224 2:-1 3:1 4:1 5:3 
1 0 0 1:2 4:1 5:3 
0 0.1301147396123956 0 1:1 2:-2 4:1 5:5 
0 1 0 1:2 2:-2 5:3 
0 1 0 1:2 2:-2 5:3 
0 0 1 1:3 2:-1 4:1 5:2 
0 0 1 1:3 2:-1 4:1 5:2 
0 0 1 1:1 2:-1 4:1 5:4 
1 0 0 1:1 5:2 
0 1 0 1:1 2:-2 4:1 5:4 
1 0 0.6419365148131544 1:1 4:1 5:2 
1 0 0 1:2 4:1 5:2 
0.02668033676141899 0 0 1:2 4:1 5:8 
0 1 0 1:2 2:-2 4:1 5:2 
0 1 0 1:2 2:-2 4:1 5:2 
1 0 1 1:4 4:1 5:3 
0 0 1 1:4 2:-1 4:1 5:2 
0 0 1 1:4 2:-1 4:1 5:3 
0 0 1 1:4 2:-1 4:1 5:3 
1 0 0 1:1 4:1 5:3 
0 1 0 1:2 2:-2 4:1 5:2 
0 0.7004089070177923 0 1:1 2:-2 4:1 5:4 
0 0 0.4427863003127309 1:4 2:-1 4:1 5:5 
0 0 1 1:1 2:-1 4:1 5:3 
0.3696884100591232 0 0 1:1 5:3 
0 0 1 1:1 2:-1 4:1 5:2 
0 0 1 1:1 2:-1 4:1 5:3 
1 0 0 1:1 5:2 
1 0 0.91317022811306 1:1 4:1 5:2 
0 0 1 1:4 2:-1 4:1 5:4 
1 0 0 1:4 4:1 5:2 
0 0 1 1:4 2:-1 4:1 5:6 
1 0 0 1:1 4:1 5:3 
1 0 0 1:1 4:1 5:3 
0.9736528122235115 0 0 1:2 4:1 5:3 
0 1 0 1:1 2:-2 4:1 5:3 
1 0 0 1:1 4:1 5:3 
1 0 1 1:1 2:-1 4:1 5:1 
1 0 0 5:1 
1 0 0 5:1 
1 0 0 1:1 5:2 
1 0 0 1:1 5:2 
1 0 0 1:1 5:2 
0 0 1 1:4 2:-1 4:1 5:3 
0 0 1 1:4 2:-1 4:1 5:4 
0 0 1 1:4 2:-1 4:1 5:4 
0 0 1 1:4 2:-1 4:1 5:4 
0 0 1 1:4 2:-1 4:1 5:4 
0 1 0.6025553828729793 1:1 2:-2 4:1 5:1 
1 0 0 5:1 
0.8474175660608814 0 0 5:1 
1 0 0 1:1 4:1 5:3 
1 0 0 1:4 4:1 5:2 
1 0 1 1:1 5:1 
0 0 1 1:3 2:-1 4:1 5:3 
0 0 1 1:2 2:-1 4:1 5:3 
1 0 0 1:1 5:2 
1 0 0 1:1 5:2 
0 0 1 1:4 2:-1 5:3 
0 0 1 1:4 2:-1 5:4 
-0.01008732751257318 0 0 1:1 4:1 5:2 
-1 0 0 1:2 4:1 5:2 
-1 0 0 1:2 5:2 
-1 0 0 1:1 5:2 
-1 0 0 1:1 5:2 
-1 0 0 1:4 4:1 5:4 
-1 0 0 1:2 4:1 5:2 
-1 0 0 1:2 4:1 5:2 
-1 0 0 1:1 5:3 
-1 0 0 1:1 5:3 
-1 0 0 1:2 4:1 5:2 
-1 0 0 1:2 4:1 5:2 
-1 0 0 1:2 5:2 
-1 0 0 1:2 5:4 
-1 0 0 1:2 5:3 
-1 0 0 1:2 5:3 
-1 0 0 1:3 4:1 5:2 
-1 0 0 1:1 4:1 5:4 
-1 0 0 1:2 4:1 5:2 
-1 0 0 1:2 4:1 5:4 
-1 0 0 1:1 5:3 
-1 0 0 1:1 5:4 
-1 0 0 1:1 5:3 
-1 0 0 1:1 5:3 
-1 0 0 1:1 5:5 
-1 0 0 1:1 5:2 
-1 0 0 1:1 5:2 
-1 0 0 1:1 5:2 
-1 0 0 1:4 4:1 5:2 
-1 0 0 1:4 4:1 5:2 
-1 0 0 1:2 4:1 5:3 
-0.4625719912189146 0 0 1:1 4:1 5:2 
-1 0 0 1:4 4:1 5:2 
-1 0 0 1:4 4:1 5:2 
-1 0 0 1:2 5:2 
-1 0 0 1:2 5:3 
-1 0 0 1:2 4:1 5:2 
-1 0 0 1:1 4:1 5:2 
-1 0 0 1:1 4:1 5:3 
-1 0 0 1:1 4:1 5:2 
-1 0 0 1:2 5:4 
-1 0 0 1:1 5:3 
-1 0 0 1:1 5:3 
-1 0 0 1:1 4:1 5:2 
-1 0 0 1:1 4:1 5:2 
-1 0 0 1:1 3:1 4:1 5:4 
-1 0 0 1:2 4:1 5:2 
-1 0 0 1:2 4:1 5:2 
-1 0 0 1:2 4:1 5:3 
-1 0 0 1:1 5:2 
-0.004690153427222595 0 0 1:1 3:1 4:1 5:3 
-1 0 0 1:1 4:1 5:2 
-1 0 0 1:1 4:1 5:3 
-1 0 0 1:1 4:1 5:2 
-1 0 0 1:1 5:2 
-1 0 0 1:1 4:1 5:4 
-1 0 0 1:1 5:3 
-1 0 0 1:4 4:1 5:2 
-1 0 0 1:4 4:1 5:3 
-1 0 0 1:2 4:1 5:2 
-1 0 0 1:1 5:2 
-1 0 0 1:2 4:1 5:3 
-0.002023651980387102 0 0 1:4 5:1 
-1 0.4835864153568801 1 1:4 5:8 
-1 1 1 1:4 5:8 
-1 0 0 1:1 4:1 5:3 
-1 0 0 1:4 3:1 4:1 5:3 
-1 0 0 1:4 3:1 4:1 5:3 
-1 0 0 1:4 3:1 4:1 5:3 
-1 0 0 1:4 3:1 4:1 5:3 
-1 0 0 1:3 5:3 
-1 0 0 1:3 5:4 
-1 0 0 1:1 4:1 5:2 
-1 0 0 1:3 4:1 5:2 
-1 0 0 1:3 4:1 5:2 
-1 0 0 1:1 5:3 
-1 0 0 1:1 5:3 
-1 0 0 1:1 5:2 
-1 0 0 1:1 4:1 5:2 
-1 0 0 1:1 4:1 5:3 
-1 0 0 1:1 4:1 5:3 
-1 0 0 1:1 5:3 
-1 0.9571330466208058 1 1:2 4:1 5:7 
-1 0 0 1:3 4:1 5:3 
-1 0 0 1:3 4:1 5:2 
-1 0 0 1:1 4:1 5:3 
-1 0 0 1:4 4:1 5:2 
-1 0 0 1:2 4:1 5:2 
-1 0 0 1:1 4:1 5:2 
-1 0 0 1:4 4:1 5:2 
-1 0 0 1:1 5:2 
-1 0 0 1:1 4:1 5:2 
-1 0 0 1:1 4:1 5:2 
-1 0.7826205151877227 1 1:4 3:1 4:1 5:4 
-1 0 0 1:1 4:1 5:2 
-1 0 0 1:1 4:1 5:2 
-1 0 0 1:1 4:1 5:2 
-1 0 0 1:4 4:1 5:2 
-1 0 0 1:1 5:2 
-1 0 0 1:1 5:2 
-1 0 0 1:1 5:2 
-1 0 0 1:1 5:2 
-1 0 0 1:1 5:2 
-1 0 0 1:1 4:1 5:3 
-1 0 0 1:1 4:1 5:2 
-1 0 0 1:1 4:1 5:2 
-1 0 0 1:1 4:1 5:3 
-1 0 0 1:1 4:1 5:3 
-1 0 0 1:1 4:1 5:2 
-1 0 0 1:1 4:1 5:2 
-1 0 0 1:1 4:1 5:4 
-1 0 0 1:2 5:3 
-1 0 0 1:1 4:1 5:2 
-1 0 0 1:1 4:1 5:2 
-1 0 0 1:1 4:1 5:3 
-1 0 0 1:1 5:2 
-1 0 0 1:2 4:1 5:2 
-1 0 0 1:1 5:2 
-1 0 0 1:1 5:2 
-1 0 0 1:1 4:1 5:2 
-1 0 0 1:1 5:2 
-1 0 0 1:1 5:2 
-1 0 0 1:1 5:2 
-1 0 0 1:4 4:1 5:2 
-1 0 0 1:1 5:2 
-1 0 0 1:1 4:1 5:2 
-1 0 0 1:1 4:1 5:2 
-1 0 0 1:1 4:1 5:3 
-1 0 0 1:1 5:2 
-1 0 0 1:4 4:1 5:2 
-1 0 0 1:1 4:1 5:2 
-1 0 0 1:4 4:1 5:2 
-1 0 0 1:1 4:1 5:2 
-1 0 0 1:1 4:1 5:2 
-1 0 0 1:1 5:2 
-1 0 0 1:2 5:2 
-1 0 0 1:4 5:2 
-1 0 0 1:4 5:3 
-1 0 0 1:1 4:1 5:3 
-1 0 0 1:4 5:2 
-1 0 0 1:2 5:5 
-1 0 0 1:4 4:1 5:2 
-1 0 0 1:1 4:1 5:2 
-1 0 0 1:1 4:1 5:2 
-1 0 0 1:1 4:1 5:2 
-1 0 0 1:4 5:2 
-1 0.676739027385845 1 1:4 5:4 
-1 0 0 1:4 3:1 5:2 
-1 0 0.5001222393975752 1:4 3:1 5:3 
-1 0 0 1:1 4:1 5:2 
-1 0 0 1:1 4:1 5:2 
-1 0 0 1:1 5:2 
-1 0 0 1:1 5:2 
-1 0 0 1:1 5:2 
-1 0 0 1:1 5:2 
-1 0 0 1:1 5:2 
-1 0 0 1:1 5:2 
-1 0 0 1:1 5:2 
-1 0 0 1:1 4:1 5:2 
-1 0 0 1:1 4:1 5:3 
-1 0 0 1:1 5:2 
-1 0 0 1:1 5:2 
-1 0 0 1:1 5:2 
-1 0 0 1:1 4:1 5:2 
-1 0 0 1:4 4:1 5:2 
-1 0 0 1:4 5:3 
-1 0 0 1:1 4:1 5:2 
-1 0 0 1:4 4:1 5:2 
-1 0 0 1:4 4:1 5:2 
-1 0 0 1:1 4:1 5:2 
-1 0 0 1:1 4:1 5:2 
-1 0 0 1:1 5:2 
-1 0 0 1:3 5:2 
-1 0 0 1:1 4:1 5:2 
-1 0 0 1:1 4:1 5:2 
-1 0 0 1:1 5:2 
-1 0 0 1:1 5:2 
-1 0 0 1:1 5:2 
-1 0 0 1:1 5:4 
-1 0 0 1:1 5:4 
-1 0 0 1:1 5:2 
-1 0 0 1:1 5:2 
-1 0 0 1:1 5:2 
-1 0 0 1:1 5:3 
-1 0 0 1:1 4:1 5:2 
-1 0 0 1:1 4:1 5:2 
-1 0 0 1:1 4:1 5:2 
-1 0 0 1:1 5:2 
-1 0 0 1:1 5:3 
-1 0 0 1:1 5:4 
-1 0 0 1:1 5:2 
-1 0 0 1:3 5:3 
-1 0 0 1:1 5:2 
-1 0 0 1:1 5:2 
-1 0 0 1:1 5:2 
-1 0 0 1:1 5:3 
-1 0 0 1:1 5:2 
-1 0 0 1:1 4:1 5:2 
-1 0 0 1:1 4:1 5:2 
-1 0 0 1:1 4:1 5:2 
-1 0 0 1:4 4:1 5:3 
-1 0 0 1:4 4:1 5:3 
-1 0 0 1:1 4:1 5:2 
-1 0 0 1:1 5:3 
-1 0 0 1:1 4:1 5:2 
-1 0 1 1:4 4:1 5:4 
-1 0 0 1:3 4:1 5:3 
-1 0 0 1:1 4:1 5:3 
-1 0 0 1:1 5:3 
-0.525904248754268 0 0 1:3 3:1 5:3 
-1 0 0 1:2 5:2 
-1 0 0 1:3 5:3 
-1 0 0 1:1 5:2 
-1 0 0 1:1 4:1 5:3 
-1 0 0 1:1 4:1 5:2 
-1 0 0 1:1 3:1 5:3 
-1 0 0 1:1 3:1 5:3 
-1 0 0 1:1 5:2 
-1 0 0 1:1 5:2 
-1 0 0 1:1 5:2 
-1 0 0 1:1 5:2 
-1 0 0 1:4 4:1 5:2 
-1 0 0 1:1 5:2 
-1 0 0 1:1 4:1 5:2 
-1 0 0 1:2 4:1 5:3 
-1 0 0 1:1 4:1 5:2 
-1 0 0 1:2 5:2 
-1 0 0 1:2 5:2 
-1 0 0 1:1 5:2 
-1 0 0 1:1 4:1 5:2 
-1 0 1 1:3 5:6 
-1 0 0 1:2 5:2 
-1 0 0 1:2 5:2 
-1 0 0 1:2 5:2 
-1 0 0.715509489861764 1:1 4:1 5:5 
-1 0 1 1:1 4:1 5:5 
-1 0 0 1:2 5:3 
-1 0 0 1:2 5:5 
-1 0 0 1:1 4:1 5:2 
-1 0 0 1:1 4:1 5:2 
-1 0 0 1:1 4:1 5:2 
-1 0 0 1:3 4:1 5:2 
-1 0 0 1:3 4:1 5:2 
-1 0.04530174371824379 0.5495498976546317 1:1 4:1 5:5 
-1 0 0 1:4 5:2 
-1 0 0 1:1 4:1 5:3 
-1 0 0 1:1 5:2 
-1 0 0 1:1 4:1 5:2 
-1 0 0 1:2 4:1 5:2 
-1 0 0 1:2 4:1 5:2 
-1 0 0 1:1 4:1 5:2 
-1 0 0 1:1 4:1 5:2 
-1 0 0 1:1 5:2 
-1 0 0 1:1 5:2 
-1 0 0 1:1 5:2 
-1 0 0 1:1 4:1 5:2 
-1 0 0 1:1 5:2 
-1 0 0 1:1 5:2 
-1 0 0 1:1 5:2 
-1 0 0 1:1 5:3 
-1 0 0 1:2 5:2 
-1 0 0 1:2 4:1 5:4 
-1 0 0 1:1 5:3 
-1 0 0 1:1 5:2 
-1 0 0 1:1 5:2 
-1 0 0 1:1 4:1 5:2 
-1 0 0 1:1 5:3 
-1 0 0 1:4 3:1 4:1 5:3 
-1 0 0 1:1 4:1 5:4 
-1 0 0 1:1 4:1 5:4 
-1 0 0 1:1 4:1 5:4 
-1 0 0 1:1 4:1 5:4 
-1 0 0 1:2 4:1 5:2 
-1 0 0 1:2 4:1 5:2 
-1 0 0 1:1 4:1 5:2 
-0.6954563454379019 0 0 1:1 3:1 4:1 5:3 
-0 0 0.4302682751612833 1:4 3:1 5:1 
-0 0.5042737280581074 0.9604422042934521 1:4 3:1 5:1 
-1 0 0 1:1 4:1 5:2 
-1 0 0 1:2 5:2 
-1 0 0 1:2 5:2 
-1 0 0 1:1 4:1 5:2 
-1 0 0 1:1 4:1 5:2 
-1 0 0 1:1 4:1 5:2 
-1 0 0 1:1 4:1 5:2 
-0.6378134143497305 0 0.5077440951177742 1:1 3:1 5:3 
-0.1758224406535207 0 0.0545122130320216 1:1 3:1 5:4 
-1 0 1 1:1 3:1 5:5 
-1 0.4935343605421781 1 1:1 3:1 5:5 
-1 0 0 1:1 3:1 4:1 5:4 
-1 0.1415161557289011 0 1:1 3:1 4:1 5:4 
-1 0 0 1:4 4:1 5:2 
-1 0 0 1:1 5:2 
-1 0 0 1:1 5:5 
-1 0 0 1:1 5:4 
-1 0 0 1:1 4:1 5:3 
-1 0 0 1:1 4:1 5:2 
-1 0 0 1:1 5:2 
-1 0 0 1:1 4:1 5:3 
-1 0 0 1:2 4:1 5:2 
-1 0 0 1:1 4:1 5:2 
-0.1225851312042281 0 0 1:4 5:1 
-1 0 0 1:1 4:1 5:2 
-1 0 0 1:1 4:1 5:2 
-1 0 0 1:1 4:1 5:2 
-1 0 0 1:1 5:4 
-1 0 0 1:1 5:2 
-1 0 0 1:1 5:3 
-1 0 0 1:3 4:1 5:2 
-1 0 0 1:4 4:1 5:3 
-1 0 0 1:2 4:1 5:3 
-1 0 0 1:2 4:1 5:2 
-1 0 0 1:2 5:3 
-1 0 0 1:2 5:3 
-1 0 0 1:2 5:3 
-1 0.2924696135658744 0 1:1 4:1 5:4 
-0.4836541091285023 0 0 1:4 4:1 5:1 
-1 0 0 1:1 4:1 5:2 
-1 0 0 1:1 5:2 
-1 0 0 1:1 5:2 
-1 0 0 1:1 5:2 
-1 0 0 1:1 5:2 
-1 0 0 1:1 5:2 
-1 0 0 1:1 5:2 
-1 0.4604572421217468 0.1411476903566683 1:1 5:5 
-1 0 0 1:4 4:1 5:1 
-1 0 0 1:1 4:1 5:3 
-1 0 0 1:2 4:1 5:2 
-1 0 0 1:4 4:1 5:1 
-1 0 0 1:4 4:1 5:2 
-1 0.06512764083505035 0.7638928853629344 1:4 4:1 5:4 
-1 0 0 1:4 5:2 
-1 0 0 1:4 5:1 
-1 0 0 1:4 5:1 
-1 0 0 1:4 5:1 
-1 0 0 1:4 5:1 
-1 0 0 1:4 4:1 5:3 
-1 0 0 1:2 4:1 5:2 
-1 0 0 1:1 4:1 5:2 
-1 0 0 1:1 4:1 5:2 
-1 0 0 1:4 4:1 5:1 
-1 0 0 1:4 4:1 5:3 
-1 0 0 1:4 4:1 5:1 
-1 0 0 1:4 4:1 5:3 
-1 0 0 1:4 5:2 
-1 0 0.1259451437825869 1:4 5:1 
-1 0 0 1:4 5:3 
-1 0 0 1:4 4:1 5:3 
-1 0 0 1:4 4:1 5:1 
-1 0 0 1:4 4:1 5:3 
-1 0 0 1:4 4:1 5:3 
-1 0 0 1:1 3:1 4:1 5:3 
-1 0.09358088686054193 0.5058713586392325 1:1 3:1 4:1 5:3 
-1 0 0 1:1 5:2 
-0.9976819921137648 0 0 1:1 5:1 
-1 0 0 1:1 5:1 
-1 0 0 1:1 5:1 
-1 0 0 1:1 5:1 
-1 0 0 1:3 4:1 5:2 
-1 0 0 1:1 4:1 5:3 
-1 0 0 1:1 4:1 5:2 
-1 0 0 1:1 5:1 
-1 0 0 1:1 5:1 
-1 0 0 1:1 4:1 5:2 
-1 0 1 1:4 4:1 5:1 
-0.9975705331572714 0.4882876083348111 0.2749363496836857 1:4 4:1 5:1 
-0 0 0.1293011661725285 1:4 3:1 4:1 5:1 
-0 0.3059555989624974 1 1:4 3:1 4:1 5:1 
-1 0 0 1:4 5:2 
-1 0 0 1:1 4:1 5:2 
-1 0 0 1:1 4:1 5:2 
-1 0 0 1:1 4:1 5:2 
-1 0 0 1:1 4:1 5:2 
-1 0 0 1:1 5:1 
-1 0 0 1:1 5:4 
-1 0 0 1:1 5:1 
-1 0 0 1:1 5:2 
-1 0 0 1:1 5:1 
-1 0 0 1:1 5:1 
-1 0 0 1:1 5:1 
-1 0 0 1:1 5:1 
-1 0 0 1:1 5:1 
-1 0.1238793190685678 0.3452216268065897 1:1 5:3 
-1 0 0 1:1 5:2 
-1 0 0 1:1 5:2 
-1 0 0 1:1 5:2 
-1 0 0 1:3 4:1 5:3 
-1 0 0 1:1 5:2 
-1 0 0 1:1 5:1 
-1 0 0 1:1 5:4 
-1 0 0 1:1 5:4 
-1 0 0 1:1 5:4 
-1 0 0 1:1 5:2 
-1 0 0 1:1 5:1 
-1 0 0 1:1 5:1 
-1 0 0 1:1 5:1 
-1 0 0 1:1 5:2 
-1 0 0 1:1 5:1 
-1 0 0 1:1 5:1 
-1 0 0 1:3 5:2 
-1 0 0 1:1 4:1 5:2 
-1 0 0 1:1 4:1 5:3 
-1 0 0 1:1 4:1 5:2 
-1 0 0 1:1 4:1 5:2 
-1 0 0 1:1 4:1 5:2 
-1 0 0 1:1 4:1 5:2 
-1 0.07898692738893941 0.07219991190725165 1:1 4:1 5:3 
-1 0 0 1:1 4:1 5:2 
-0.892426011366056 0.3629397753886764 1 1:4 5:1 
-1 0 0 1:2 4:1 5:2 
-1 0 0 1:2 4:1 5:4 
-1 0 0 1:1 5:1 
-1 0 0 1:1 5:1 
-1 0 0 1:1 5:2 
-1 0 0 1:1 5:1 
-1 0 0 1:1 5:1 
-1 0 0 1:1 5:1 
-1 0 0 1:1 4:1 5:2 
-1 0 0 1:4 4:1 5:2 
-1 0 0 1:1 4:1 5:2 
-1 0 0 1:1 5:2 
-1 0 0 1:1 5:1 
-1 0 0 1:1 5:1 
-1 0 0 1:1 4:1 5:2 
-1 0 0 1:1 4:1 5:2 
-0 0 0.111348753995568 1:1 4:1 5:1 
-1 0 0 1:1 4:1 5:2 
-1 0 0 1:1 5:1 
-1 0 0 1:1 5:1 
-1 0 0 1:1 5:1 
-0 0.2528946437557153 0.2483681484601502 1:1 3:1 5:1 
-1 0 0 1:3 4:1 5:2 
-1 0 0 1:1 4:1 5:2 
-0 0.1069224623084997 0 1:1 3:1 4:1 5:1 
-0 0.2177787824692607 0.6175306277785457 1:1 4:1 5:1 
-1 0 0 1:1 5:2 
-1 0 0 1:1 5:2 
-1 0 0 1:1 5:2 
-1 0 0 1:1 5:1 
-1 0 0.993476965989126 1:1 5:1 
-0.5881503582551685 0.4976619344280693 1 1:1 5:1 
-0 1 1 1:1 3:1 4:1 5:1 
-0 0.7678651602996104 0.9353413465231061 1:1 3:1 4:1 5:1 
-1 -0 0 1:2 2:-2 5:4 
-0.2372864605285793 -0 0 1:2 2:-2 5:2 
-1 -0 1 1:4 2:-2 5:6 
-1 -0 1 1:4 2:-2 5:6 
-1 -0 0 1:1 2:-2 4:1 5:3 
-1 -1 1 1:1 2:-1 3:1 4:1 5:1 
-1 -1 1 1:1 2:-1 3:1 4:1 5:1 
-1 -0 0 1:4 2:-2 5:3 
-1 -0 0 1:4 2:-2 5:3 
-1 -0.1337946924337358 1 1:1 2:-2 3:1 4:1 5:3 
-1 -0 0 1:2 2:-2 5:4 
-1 -0 0 1:2 2:-2 5:4 
-0.5714446721973417 -0 0 1:4 2:-2 3:1 5:4 
-0.1538092826341798 -0 0 1:2 2:-2 4:1 5:1 
-1 -0 0 1:2 2:-2 5:4 
-0.01301745909655968 -0 0 1:2 2:-2 5:7 
-0.8433073854816651 -0 0 1:2 2:-2 5:7 
-1 -0 0 1:2 2:-2 5:4 
-1 -0 0 1:2 2:-2 5:4 
-1 -0 0 1:4 2:-2 3:1 5:4 
-0.6214787223955865 -0 0 1:2 2:-2 4:1 5:3 
-1 -0 0.5780179970450307 1:4 2:-2 3:1 4:1 5:4 
-1 -0.4719924054473312 0.9691880079127178 1:4 2:-2 3:1 4:1 5:4 
-1 -0 0 1:1 2:-2 5:2 
-1 -0 0 1:2 2:-2 5:7 
-1 -0 0 1:2 2:-2 5:7 
-1 -0 0 1:4 2:-2 5:2 
-0.09761529281343866 -0 0 1:4 2:-2 3:1 4:1 5:3 
-0.1042816290069953 -0 0 1:2 2:-2 4:1 5:6 
-1 -0 0 1:1 2:-2 5:1 
-1 -0 0 1:2 2:-2 5:1 
-1 -0 0 1:2 2:-2 5:5 
-1 -0 0.8114338757027079 1:1 2:-2 5:1 
-1 -0 1 1:1 2:-2 5:1 
-1 -0 0 1:2 2:-2 4:1 5:5 
-1 -0 0 1:2 2:-2 4:1 5:5 
-1 -0 0 1:2 2:-2 4:1 5:5 
-0.6653780000026056 -0 1 1:4 2:-2 5:1 
-1 -0 0 1:2 2:-2 5:4 
-1 -0 0 1:4 2:-2 3:1 4:1 5:8 
-1 -0.5568404243016157 0.6410680798210141 1:4 2:-2 3:1 4:1 5:8 
-1 -0 0 1:4 2:-2 4:1 5:3 
-1 -0 0 1:4 2:-2 4:1 5:4 
-1 -0.2437775752897597 0.5601563076566018 1:4 2:-2 4:1 5:4 
-0.01938146117082139 -0 1 1:4 2:-2 3:1 4:1 5:1 
-0.2148198217015444 -0.2696611016391999 0.4006425861740965 1:4 2:-2 3:1 4:1 5:1 
-1 -0 0 1:2 2:-2 5:1 
-1 -0 0 1:2 2:-2 5:4 
-1 -0 0 1:2 2:-2 5:4 
-1 -0 0 1:2 2:-2 5:4 
-1 -0 0 1:2 2:-2 5:4 
-1 -0 0 1:4 2:-2 5:2 
-1 -0 0 1:4 2:-2 3:1 5:4 
-0.9373454004253353 -0 0 1:2 2:-2 5:6 
-1 -0 0 1:1 2:-2 5:4 
-1 -0 0 1:1 2:-2 3:1 4:1 5:2 
-1 -0 0 1:1 2:-2 3:1 4:1 5:2 
-1 -0 0 1:2 2:-2 5:4 
-1 -0 0 1:2 2:-2 5:4 
-0.9841816540811947 -0 0 1:2 2:-2 5:3 
-1 -0 0 1:2 2:-2 5:3 
-1 -0 0 1:2 2:-2 5:3 
-1 -0 0 1:2 2:-2 5:3 
-1 -0 0 1:2 2:-2 5:5 
-1 -0 0 1:2 2:-2 5:5 
-1 -0 0 1:2 2:-2 5:3 
-1 -0 0 1:2 2:-2 5:3 
-1 -0 0 1:4 2:-2 3:1 4:1 5:2 
-1 -0 0 1:4 2:-2 3:1 4:1 5:2 
-1 -0 0 1:2 2:-2 4:1 5:5 
-1 -0 0 1:2 2:-2 4:1 5:5 
-1 -0 0 1:2 2:-2 5:3 
-1 -0 0 1:2 2:-2 5:4 
-1 -0 0 1:2 2:-2 5:7 
-1 -0 0 1:2 2:-2 5:7 
-1 -0 0 1:2 2:-2 5:3 
-1 -0 0 1:2 2:-2 5:3 
-1 -0 0 1:2 2:-2 5:1 
-1 -0 0 1:2 2:-2 5:1 
-1 -0 0 1:2 2:-2 5:3 
-1 -0 0 1:4 2:-2 5:2 
-1 -0 0 1:4 2:-2 5:4 
-1 -0.2846688705293642 0 1:4 2:-2 5:4 
-0.9821640734985707 -0 0.1268723633511765 1:4 2:-2 4:1 5:1 
-0.86480375874955 -0 0 1:2 2:-2 4:1 5:3 
-1 -0 0 1:2 2:-2 4:1 5:3 
-0.004127189472118932 -0 0 1:4 2:-2 3:1 5:2 
-0.9863261622133732 -0.2734391287496971 0.9664048699461917 1:4 2:-2 3:1 5:4 
-1 -0 0 1:1 2:-2 4:1 5:1 
-1 -0 0 1:1 2:-2 4:1 5:1 
-1 -0 0 1:2 2:-2 5:4 
-1 -0 0 1:4 2:-2 5:2 
-1 -0 0 1:2 2:-2 5:4 
-1 -0 0 1:2 2:-2 5:7 
-1 -0 0 1:2 2:-2 5:7 
-1 -0 0 1:2 2:-2 5:4 
-1 -0 0 1:2 2:-2 5:4 
-1 -0 0 1:2 2:-2 5:3 
-1 -0 0 1:2 2:-2 5:3 
-1 -0 0 1:2 2:-2 5:6 
-1 -0 0 1:2 2:-2 5:3 
-1 -0 0 1:2 2:-2 5:6 
-1 -0 0 1:2 2:-2 5:6 
-0.2423588806375406 -0.4763767258730378 1 1:4 2:-2 4:1 5:1 
-1 -0 0 1:2 2:-2 5:4 
-1 -0 0 1:2 2:-2 5:4 
-1 -0 0 1:2 2:-2 4:1 5:3 
-1 -0 0 1:1 2:-2 5:8 
-1 -0 0.8657737450700981 1:1 2:-2 5:4 
-1 -0 0 1:1 2:-2 5:4 
-1 -0 0 1:2 2:-2 5:1 
-1 -0 0 1:2 2:-2 5:4 
-1 -0 0 1:2 2:-2 5:7 
-1 -0 0 1:2 2:-2 5:1 
-1 -0 0 1:2 2:-2 5:1 
-1 -0 0 1:2 2:-2 5:1 
-0.4890993877745926 -0 0 1:2 2:-2 4:1 5:4 
-1 -0 0 1:2 2:-2 4:1 5:4 
-1 -0 0 1:2 2:-2 4:1 5:3 
-1 -0 0 1:2 2:-2 4:1 5:3 
-1 -0 0 1:2 2:-2 5:6 
-0.6517011474224828 -0 0 1:2 2:-2 5:2 
-1 -0 0 1:2 2:-2 5:2 
-1 -0 0 1:1 2:-2 4:1 5:4 
-1 -0 0 1:1 2:-2 4:1 5:4 
-1 -0 0 1:2 2:-2 5:1 
-1 -0 0 1:2 2:-2 5:2 
-1 -0 0 1:2 2:-2 5:2 
-1 -0 0 1:2 2:-2 5:2 
-1 -0 0 1:2 2:-2 5:4 
-1 -0 0 1:2 2:-2 5:4 
-1 -0 0 1:2 2:-2 4:1 5:4 
-1 -0 0 1:2 2:-2 4:1 5:4 
-1 -0 0 1:2 2:-2 4:1 5:4 
-1 -0 0 1:2 2:-2 4:1 5:8 
-1 -0.2117197798527966 0.07238770492913295 1:2 2:-2 4:1 5:8 
-1 -0 0 1:1 2:-2 3:1 4:1 5:2 
-1 -0 0 1:1 2:-2 3:1 4:1 5:2 
-1 -0 0 1:2 2:-2 5:4 
-1 -0 0 1:2 2:-2 5:2 
-1 -0.3669338334335003 0.6163849694223119 1:1 2:-2 5:8 
-1 -0.622126638901342 1 1:1 2:-2 5:6 
-0.4602193607793492 -0 0 1:2 2:-2 4:1 5:2 
-1 -0 0 1:2 2:-2 4:1 5:2 
-1 -0 0 1:2 2:-2 4:1 5:2 
-1 -0 0 1:1 2:-2 4:1 5:3 
-1 -0 0 1:1 2:-2 4:1 5:3 
-1 -0 0 1:4 2:-2 5:2 
-1 -0 0.3926200390715522 1:4 2:-2 5:1 
-0.9796613450092322 -0.3754272407705371 0 1:4 2:-2 5:1 
-1 -0 0 1:2 2:-2 4:1 5:3 
-1 -0 0 1:2 2:-2 4:1 5:3 
-1 -0 0 1:1 2:-2 4:1 5:1 
-1 -0 0.3780608998175489 1:1 2:-2 4:1 5:1 
-1 -0 0 1:2 2:-2 4:1 5:2 
-1 -0 0 1:2 2:-2 4:1 5:2 
-1 -0.3911956991934314 0.0779492451589115 1:2 2:-2 5:9 
-1 -0 0 1:2 2:-2 4:1 5:2 
-1 -0 0 1:2 2:-2 4:1 5:2 
-1 -0 0 1:2 2:-2 4:1 5:2 
-1 -0 0 1:2 2:-2 5:2 
-1 -0 0 1:2 2:-2 5:2 
-1 -0 0 1:2 2:-2 5:2 
-1 -0 0 1:2 2:-2 4:1 5:2 
-1 -0 0 1:2 2:-2 4:1 5:2 
-1 -0 0 1:2 2:-2 4:1 5:3 
-1 -0 0 1:2 2:-2 5:7 
-1 -0 0 1:2 2:-2 5:2 
-1 -0 0 1:2 2:-2 5:2 
-1 -0 0 1:2 2:-2 5:3 
-1 -0 0 1:2 2:-2 5:2 
-1 -0 0 1:2 2:-2 4:1 5:3 
-1 -0 0 1:2 2:-2 4:1 5:4 
-0.2842973849493596 -0 0 1:2 2:-2 4:1 5:4 
-1 -0 0 1:2 2:-2 5:5 
-1 -0 0 1:2 2:-2 5:5 
-1 -0 0 1:2 2:-2 5:3 
-1 -0 0 1:2 2:-2 5:3 
-1 -0 0 1:2 2:-2 5:3 
-1 -0 0 1:2 2:-2 5:5 
-1 -0 0 1:2 2:-2 5:5 
-1 -0 0 1:2 2:-2 5:2 
-1 -0 0 1:2 2:-2 5:4 
-1 -0 0 1:2 2:-2 5:2 
-1 -0 0 1:2 2:-2 5:5 
-1 -0 0 1:2 2:-2 5:5 
-1 -0 0 1:2 2:-2 5:4 
-0.2235543807620546 -0 0 1:2 2:-2 5:6 
-1 -0.3140276905433366 0.5924500354443405 1:4 2:-2 5:6 
-1 -0 0 1:2 2:-2 5:3 
-1 -0 0 1:2 2:-2 5:1 
-1 -0 0 1:2 2:-2 5:1 
-1 -0 0 1:2 2:-2 5:1 
-1 -0 0 1:2 2:-2 5:3 
-1 -0 0 1:2 2:-2 5:3 
-1 -0 0 1:2 2:-2 5:1 
-1 -0 0 1:2 2:-2 5:3 
-1 -0 0 1:2 2:-2 5:3 
-1 -0.5889509622861744 0.5819144394978069 1:1 2:-2 5:1 
-1 -0 0 1:2 2:-2 4:1 5:2 
-0.5087962491302404 -0 0 1:2 2:-2 4:1 5:2 
-1 -0 0 1:2 2:-2 4:1 5:3 
-1 -0 0 1:2 2:-2 4:1 5:3 
-1 -0 0.4988322624839854 1:4 2:-2 5:8 
-1 -0.8596686244777937 0.9140676781063253 1:4 2:-2 5:8 
-1 -0 0 1:2 2:-2 5:3 
-1 -0 0 1:2 2:-2 5:5 
-1 -0 0 1:2 2:-2 5:2 
-1 -0 0 1:2 2:-2 5:4 
-1 -0 0 1:2 2:-2 5:4 
-0.4438614511052156 -0 0 1:2 2:-2 4:1 5:1 
-1 -0.4697317664043522 0 1:1 2:-2 5:4 
-1 -0 0 1:2 2:-2 4:1 5:3 
-1 -0 0 1:2 2:-2 4:1 5:3 
-1 -0 0 1:2 2:-2 4:1 5:1 
-1 -0 0 1:2 2:-2 4:1 5:1 
-1 -0 1 1:1 2:-2 5:5 
-1 -0 0 1:2 2:-2 5:3 
-1 -0 0 1:2 2:-2 5:3 
-1 -0 0 1:2 2:-2 4:1 5:3 
-1 -0 0 1:2 2:-2 4:1 5:1 
-1 -0 0 1:2 2:-2 5:2 
-1 -0 0 1:2 2:-2 5:2 
-1 -0 0 1:2 2:-2 5:2 
-1 -0 0 1:2 2:-2 5:4 
-1 -0 0 1:2 2:-2 5:3 
-1 -0 0 1:2 2:-2 5:1 
-1 -0 0 1:2 2:-2 5:1 
-1 -0 0 1:2 2:-2 5:1 
-1 -0 0 1:2 2:-2 5:1 
-1 -0 0 1:2 2:-2 5:5 
-1 -0 0 1:2 2:-2 5:5 
-1 -0 0 1:2 2:-2 5:2 
-1 -0 0 1:2 2:-2 5:1 
-1 -0 0 1:2 2:-2 5:1 
-1 -0 0 1:2 2:-2 5:2 
-1 -0 0 1:2 2:-2 5:1 
-1 -0 0 1:2 2:-2 5:1 
-1 -0 0 1:2 2:-2 5:5 
-1 -0 0 1:2 2:-2 5:2 
-1 -0 0 1:2 2:-2 5:1 
-1 -0 0 1:2 2:-2 5:2 
-1 -0 0 1:2 2:-2 5:2 
-1 -0.03033265352740301 0.5079097533597628 1:4 2:-2 5:3 
-0.7474542247037855 -0 0 1:2 2:-2 4:1 5:6 
-1 -0 0 1:2 2:-2 4:1 5:6 
-1 -0 0 1:2 2:-2 4:1 5:6 
-1 -0 0 1:2 2:-2 5:5 
-1 -0 0 1:2 2:-2 5:2 
-1 -0 0 1:2 2:-2 5:2 
-1 -0 0 1:2 2:-2 4:1 5:3 
-1 -0 0 1:2 2:-2 4:1 5:1 
-1 -0 0 1:2 2:-2 5:4 
-1 -0 0 1:2 2:-2 5:1 
-1 -0 0 1:2 2:-2 5:2 
-1 -0 0 1:2 2:-2 5:2 
-1 -0 0 1:2 2:-2 5:1 
-1 -0 0 1:2 2:-2 5:1 
-1 -0 0 1:2 2:-2 5:2 
-1 -0 0 1:2 2:-2 5:1 
-1 -0 0 1:2 2:-2 5:1 
-1 -0 0 1:2 2:-2 5:2 
-1 -0 0 1:2 2:-2 5:1 
-1 -0 0 1:2 2:-2 5:1 
-0.04046673471264352 -0 0 1:3 2:-2 4:1 5:2 
-1 -0 0 1:2 2:-2 5:7 
-1 -0 0 1:2 2:-2 5:7 
-1 -0 0 1:2 2:-2 5:8 
-1 -0 0 1:2 2:-2 5:8 
-1 -0 0 1:2 2:-2 5:3 
-1 -0 0 1:2 2:-2 5:1 
-1 -0 0 1:2 2:-2 5:1 
-1 -0 0 1:2 2:-2 5:2 
-1 -0 0 1:2 2:-2 5:2 
-1 -0 0 1:2 2:-2 5:2 
-1 -0 0.1601652403896191 1:1 2:-2 4:1 5:4 
-1 -0.3936600301960217 1 1:1 2:-2 4:1 5:4 
-1 -0 0 1:2 2:-2 4:1 5:1 
-1 -0 0 1:2 2:-2 4:1 5:1 
-1 -0 0 1:2 2:-2 5:3 
-0.2115482709094161 -0 0 1:2 2:-2 5:3 
-1 -0 0 1:2 2:-2 4:1 5:1 
-1 -0 0 1:2 2:-2 4:1 5:1 
-0.01323527571513593 -0 0 1:2 2:-2 3:1 4:1 5:5 
-1 -0 0 1:2 2:-2 5:4 
-1 -0 0 1:2 2:-2 5:2 
-1 -0 0 1:2 2:-2 5:2 
-1 -0 0 1:2 2:-2 5:2 
-1 -0 0 1:2 2:-2 5:2 
-1 -0 0 1:2 2:-2 5:2 
-1 -0 0 1:2 2:-2 5:1 
-0.02290934030039556 -0.4823013318391877 1 1:4 2:-2 3:1 5:1 
-1 -0 0 1:4 2:-2 4:1 5:2 
-1 -0 0 1:1 2:-2 5:2 
-1 -0 0 1:2 2:-2 5:7 
-1 -0 0 1:2 2:-2 5:7 
-1 -0 0 1:3 2:-2 5:3 
-1 -0 0 1:3 2:-2 5:3 
-1 -0 0 1:2 2:-2 4:1 5:1 
-1 -0 0 1:2 2:-2 4:1 5:1 
-1 -0 0 1:2 2:-2 4:1 5:1 
-1 -0 0 1:2 2:-2 4:1 5:3 
-1 -0 0 1:2 2:-2 4:1 5:1 
-1 -0 0 1:2 2:-2 5:1 
-1 -0 0 1:2 2:-2 5:1 
-1 -0 0 1:2 2:-2 5:1 
-1 -0 0 1:2 2:-2 4:1 5:1 
-1 -0 0 1:2 2:-2 4:1 5:3 
-1 -0.1030685141335213 0.9094518759135634 1:2 2:-2 4:1 5:6 
-0.1288544993464949 -0.2798168985634055 0.2533350156466422 1:2 2:-2 3:1 4:1 5:5 
-1 -0 1 1:1 2:-2 3:1 4:1 5:1 
-1 -0 1 1:1 2:-2 3:1 4:1 5:1 
-1 -0 0 1:2 2:-2 4:1 5:1 
-1 -0 0 1:2 2:-2 4:1 5:1 
-0.04280283188092399 -0 -0 1:4 2:-1 3:1 4:1 5:1 
-1 -0 -0 1:1 2:-1 4:1 5:2 
-1 -0 -0 1:1 2:-1 4:1 5:4 
-1 -0 -0 1:1 2:-1 4:1 5:4 
-0.0642298841829573 -0 -0 1:4 2:-1 4:1 5:3 
-0.01289722541535765 -0 -0 1:1 2:-1 3:1 4:1 5:1 
-1 -0 -0 1:1 2:-1 4:1 5:2 
-1 -0 -0 1:1 2:-1 4:1 5:3 
-1 -0 -0 1:1 2:-1 4:1 5:2 
-0.4578687483766993 -0 -0 1:4 2:-1 4:1 5:3 
-1 -0 -0 1:4 2:-1 4:1 5:3 
-1 -0 -0 1:4 2:-1 5:3 
-1 -0 -0 1:1 2:-1 4:1 5:2 
-1 -0 -0 1:1 2:-1 3:1 4:1 5:3 
-1 -0 -0 1:4 2:-1 4:1 5:4 
-1 -0 -0 1:4 2:-1 4:1 5:3 
-1 -0 -0 1:4 2:-1 3:1 5:4 
-1 -0 -0 1:4 2:-1 4:1 5:3 
-1 -0 -0 1:4 2:-1 4:1 5:3 
-1 -0 -0 1:4 2:-1 4:1 5:3 
-0.05664066092251561 -0 -0 1:4 2:-1 5:1 
-0.5430452224884715 -0 -0 1:1 2:-1 5:1 
-1 -0 -0 1:1 2:-1 5:2 
-1 -0 -0 1:1 2:-1 4:1 5:2 
-1 -0 -0 1:1 2:-1 4:1 5:2 
-1 -0 -0 1:1 2:-1 4:1 5:3 
-1 -0 -0 1:1 2:-1 4:1 5:2 
-0.7227982132475204 -0 -0 1:3 2:-1 4:1 5:1 
-1 -0 -0 1:3 2:-1 4:1 5:1 
-1 -0 -0 1:4 2:-1 4:1 5:3 
-1 -0 -0 1:4 2:-1 4:1 5:4 
-1 -0 -0 1:1 2:-1 4:1 5:4 
-1 -0 -0 1:3 2:-1 4:1 5:2 
-1 -0.0009049960296091794 -0.3538549605593845 1:2 2:-1 4:1 5:3 
-1 -0 -0 1:4 2:-1 4:1 5:3 
-1 -0 -0 1:4 2:-1 4:1 5:3 
-1 -0 -0 1:3 2:-1 4:1 5:1 
-1 -0 -0 1:3 2:-1 4:1 5:2 
-1 -0 -0 1:3 2:-1 4:1 5:2 
-1 -0 -0 1:3 2:-1 4:1 5:1 
-1 -0 -0 1:3 2:-1 4:1 5:1 
-1 -0.09463545788687149 -0.9334588233863285 1:4 2:-1 3:1 5:4 
-1 -0 -0 1:4 2:-1 4:1 5:3 
-1 -0 -0 1:4 2:-1 4:1 5:3 
-1 -0 -0 1:4 2:-1 4:1 5:3 
-1 -0 -0 1:3 2:-1 4:1 5:4 
-1 -0 -0 1:1 2:-1 4:1 5:2 
-1 -0 -0 1:1 2:-1 4:1 5:3 
-1 -0 -0 1:1 2:-1 5:2 
-1 -0 -0 1:1 2:-1 5:2 
-1 -0 -0 1:4 2:-1 5:2 
-1 -0 -0 1:1 2:-1 4:1 5:2 
-1 -0 -0 1:1 2:-1 4:1 5:5 
-1 -0 -0 1:1 2:-1 4:1 5:6 
-1 -0 -0 1:3 2:-1 4:1 5:2 
-1 -0 -0 1:3 2:-1 4:1 5:3 
-1 -0 -0 1:3 2:-1 4:1 5:3 
-1 -0 -0 1:1 2:-1 4:1 5:3 
-1 -0 -0 1:1 2:-1 3:1 4:1 5:4 
-1 -0.009395245904397531 -0 1:1 2:-1 3:1 4:1 5:4 
-1 -0 -0 1:1 2:-1 4:1 5:2 
-1 -0 -0 1:1 2:-1 4:1 5:2 
-1 -0 -0 1:3 2:-1 4:1 5:2 
-1 -0 -0 1:1 2:-1 4:1 5:3 
-1 -0 -0 1:4 2:-1 4:1 5:5 
-1 -0 -0 1:4 2:-1 4:1 5:4 
-1 -0 -0 1:4 2:-1 4:1 5:4 
-1 -0 -0 1:4 2:-1 4:1 5:5 
-1 -0 -0 1:4 2:-1 4:1 5:3 
-1 -0 -0 1:4 2:-1 4:1 5:4 
-1 -0 -0 1:4 2:-1 4:1 5:4 
-1 -0 -0 1:4 2:-1 4:1 5:3 
-0.3310069041733951 -0 -0 1:3 2:-1 3:1 5:3 
-1 -0 -0 1:4 2:-1 4:1 5:3 
-1 -0 -0 1:4 2:-1 4:1 5:3 
-1 -0 -0 1:3 2:-1 4:1 5:2 
-1 -0 -0 1:3 2:-1 4:1 5:3 
-1 -0 -0 1:3 2:-1 4:1 5:3 
-1 -0 -0 1:4 2:-1 5:2 
-1 -0 -0 1:4 2:-1 5:2 
-1 -0 -0 1:1 2:-1 4:1 5:2 
-1 -0 -0 1:1 2:-1 3:1 4:1 5:3 
-1 -0 -0 1:3 2:-1 4:1 5:1 
-1 -0 -0 1:3 2:-1 4:1 5:2 
-1 -0 -0 1:3 2:-1 4:1 5:2 
-1 -0 -0 1:1 2:-1 4:1 5:3 
-1 -0 -0 1:1 2:-1 4:1 5:4 
-1 -0 -0 1:4 2:-1 5:4 
-1 -0 -0 1:4 2:-1 5:4 
-1 -0 -0 1:1 2:-1 4:1 5:4 
-1 -0 -0 1:1 2:-1 4:1 5:4 
-1 -0 -0 1:4 2:-1 5:2 
-1 -1 -1 1:4 2:-1 5:7 
-1 -1 -1 1:4 2:-1 5:7 
-0.7207839997410996 -0 -0 1:1 2:-1 4:1 5:1 
-1 -0 -0 1:1 2:-1 4:1 5:2 
-1 -0 -0 1:1 2:-1 4:1 5:2 
-1 -0 -0 1:1 2:-1 5:2 
-1 -0 -0 1:4 2:-1 5:3 
-1 -0 -0 1:4 2:-1 5:3 
-1 -0 -0 1:3 2:-1 5:3 
-1 -0 -0 1:4 2:-1 5:2 
-1 -0 -0 1:4 2:-1 5:2 
-1 -0 -0 1:1 2:-1 5:3 
-0.7520936083909711 -0 -0 1:1 2:-1 5:1 
-1 -0 -0 1:1 2:-1 4:1 5:2 
-1 -0 -0 1:1 2:-1 4:1 5:3 
-1 -0 -0 1:4 2:-1 4:1 5:4 
-1 -0 -0 1:4 2:-1 4:1 5:4 
-1 -0 -0 1:1 2:-1 4:1 5:2 
-1 -0 -0 1:1 2:-1 4:1 5:2 
-1 -0 -0 1:1 2:-1 4:1 5:4 
-1 -0 -0 1:1 2:-1 4:1 5:4 
-1 -0 -0 1:1 2:-1 3:1 5:2 
-1 -0 -0 1:1 2:-1 3:1 5:3 
-1 -0 -0 1:1 2:-1 3:1 5:3 
-1 -0.03980814311198375 -0.6164761417926207 1:4 2:-1 3:1 4:1 5:5 
-1 -0 -0 1:3 2:-1 4:1 5:3 
-1 -0 -0 1:4 2:-1 4:1 5:3 
-1 -0 -0 1:4 2:-1 4:1 5:3 
-1 -0 -0 1:4 2:-1 4:1 5:3 
-1 -0 -0 1:4 2:-1 4:1 5:3 
-1 -0 -0 1:1 2:-1 5:1 
-1 -0 -0 1:1 2:-1 3:1 5:3 
-1 -0.5898665545810174 -0 1:1 2:-1 3:1 5:5 
-1 -1 -0.5200368426408152 1:1 2:-1 3:1 5:5 
-1 -0 -0 1:1 2:-1 5:4 
-1 -0 -0 1:4 2:-1 5:2 
-1 -0 -0 1:4 2:-1 4:1 5:4 
-1 -0 -0 1:4 2:-1 4:1 5:5 
-1 -0 -0 1:3 2:-1 5:3 
-1 -0 -0 1:3 2:-1 4:1 5:2 
-1 -0 -0 1:4 2:-1 4:1 5:4 
-1 -0 -0 1:4 2:-1 4:1 5:4 
-1 -0 -0 1:4 2:-1 4:1 5:4 
-1 -0 -0 1:4 2:-1 4:1 5:4 
-1 -0 -0 1:4 2:-1 4:1 5:3 
-1 -0 -0 1:4 2:-1 4:1 5:3 
-1 -0 -0 1:4 2:-1 4:1 5:5 
-1 -0 -0 1:4 2:-1 4:1 5:4 
-1 -0 -0 1:4 2:-1 4:1 5:3 
-1 -0 -0 1:4 2:-1 5:2 
-1 -0 -0 1:4 2:-1 4:1 5:3 
-1 -0 -0 1:2 2:-1 5:1 
-1 -0 -0 1:4 2:-1 5:2 
-1 -0 -0 1:1 2:-1 5:1 
-1 -0 -0 1:1 2:-1 5:1 
-1 -0 -0 1:1 2:-1 4:1 5:3 
-1 -0 -0 1:1 2:-1 4:1 5:2 
-1 -0 -0 1:1 2:-1 4:1 5:3 
-1 -0 -0 1:1 2:-1 4:1 5:1 
-1 -0 -0 1:1 2:-1 4:1 5:2 
-1 -0 -0 1:1 2:-1 4:1 5:3 
-1 -0 -0 1:1 2:-1 4:1 5:3 
-1 -0 -0 1:1 2:-1 4:1 5:2 
-1 -0 -0 1:1 2:-1 4:1 5:2 
-1 -0 -0 1:1 2:-1 4:1 5:2 
-1 -0 -0 1:1 2:-1 4:1 5:3 
-1 -0 -0 1:1 2:-1 5:4 
-1 -0 -0 1:1 2:-1 5:4 
-1 -0 -0 1:1 2:-1 5:4 
-1 -0 -0 1:3 2:-1 4:1 5:3 
-1 -0 -0 1:4 2:-1 4:1 5:4 
-1 -0 -0 1:4 2:-1 4:1 5:3 
-1 -0 -0 1:4 2:-1 4:1 5:3 
-1 -0 -0 1:4 2:-1 4:1 5:4 
-1 -0 -0 1:1 2:-1 4:1 5:1 
-1 -0 -0 1:1 2:-1 4:1 5:4 
-1 -0 -0 1:1 2:-1 4:1 5:4 
-1 -0 -0 1:1 2:-1 5:3 
-1 -0 -0 1:4 2:-1 5:4 
-1 -0 -0 1:4 2:-1 5:5 
-1 -0 -0 1:4 2:-1 5:5 
-1 -0 -0 1:1 2:-1 5:3 
-1 -0 -0 1:1 2:-1 4:1 5:1 
-1 -0 -0 1:1 2:-1 4:1 5:2 
-1 -0 -0 1:1 2:-1 4:1 5:2 
-1 -0 -0 1:1 2:-1 4:1 5:2 
-1 -0 -0 1:1 2:-1 4:1 5:3 
-1 -0 -0 1:1 2:-1 5:4 
-1 -0 -0 1:1 2:-1 5:2 
-1 -0 -0 1:1 2:-1 5:2 
-1 -0 -0 1:1 2:-1 4:1 5:2 
-1 -0 -0 1:4 2:-1 4:1 5:4 
-1 -0 -0 1:1 2:-1 4:1 5:4 
-1 -0 -0 1:1 2:-1 4:1 5:3 
-1 -0 -0 1:1 2:-1 4:1 5:3 
-1 -0 -0 1:1 2:-1 4:1 5:3 
-1 -0 -0 1:4 2:-1 4:1 5:3 
-1 -0 -0 1:4 2:-1 4:1 5:4 
-1 -0 -0 1:4 2:-1 4:1 5:4 
-1 -0 -0 1:4 2:-1 4:1 5:3 
-1 -0 -0 1:1 2:-1 4:1 5:6 
-1 -0 -0 1:1 2:-1 4:1 5:1 
-1 -0 -0 1:1 2:-1 4:1 5:1 
-1 -0 -0 1:4 2:-1 4:1 5:4 
-1 -0 -0 1:4 2:-1 4:1 5:5 
-1 -0 -0 1:1 2:-1 5:2 
-1 -0 -0 1:4 2:-1 4:1 5:3 
-1 -0 -0 1:1 2:-1 4:1 5:4 
-1 -0 -0 1:4 2:-1 4:1 5:3 
-1 -0 -0 1:1 2:-1 4:1 5:3 
-1 -0 -0 1:1 2:-1 4:1 5:3 
-1 -0 -0 1:1 2:-1 4:1 5:2 
-1 -0 -0 1:1 2:-1 4:1 5:3 
-1 -0 -0 1:1 2:-1 4:1 5:2 
-1 -0 -0 1:1 2:-1 4:1 5:1 
-1 -0 -0 1:1 2:-1 4:1 5:2 
-1 -0 -0 1:1 2:-1 4:1 5:2 
-1 -0 -0 1:1 2:-1 4:1 5:1 
-1 -0 -0 1:1 2:-1 4:1 5:3 
-1 -0 -0 1:1 2:-1 4:1 5:2 
-1 -0 -0 1:1 2:-1 4:1 5:1 
-1 -0 -0 1:1 2:-1 4:1 5:3 
-1 -0 -0 1:1 2:-1 4:1 5:2 
-1 -0 -0 1:1 2:-1 4:1 5:2 
-1 -0 -0 1:4 2:-1 4:1 5:3 
-1 -0 -0 1:4 2:-1 4:1 5:3 
-1 -0 -0 1:4 2:-1 4:1 5:4 
-1 -0 -0 1:4 2:-1 4:1 5:4 
-1 -0 -0 1:4 2:-1 4:1 5:4 
-1 -0 -0 1:4 2:-1 4:1 5:3 
-1 -0 -0 1:4 2:-1 4:1 5:3 
-1 -0 -0 1:4 2:-1 4:1 5:3 
-1 -0 -0 1:4 2:-1 5:6 
-1 -0 -0.3363882904375611 1:4 2:-1 5:6 
-1 -0 -0 1:4 2:-1 5:3 
-1 -0 -0 1:4 2:-1 5:3 
-1 -0 -0 1:1 2:-1 4:1 5:3 
-1 -0 -0 1:1 2:-1 4:1 5:3 
-1 -0 -0 1:4 2:-1 4:1 5:3 
-1 -0 -0 1:4 2:-1 4:1 5:3 
-0 -0 -0.304124635266866 1:2 2:-1 3:1 4:1 5:1 
-0 -0.2574161598581307 -0 1:2 2:-1 3:1 4:1 5:1 
-1 -0 -0 1:1 2:-1 4:1 5:1 
-1 -0 -0 1:1 2:-1 4:1 5:1 
-1 -0 -0 1:1 2:-1 4:1 5:1 
-1 -0 -0 1:3 2:-1 4:1 5:3 
-1 -0 -0 1:1 2:-1 4:1 5:2 
-1 -0 -0 1:1 2:-1 4:1 5:4 
-1 -0 -0 1:1 2:-1 4:1 5:4 
-1 -0 -0 1:1 2:-1 4:1 5:2 
-1 -0 -0 1:1 2:-1 4:1 5:3 
-1 -0 -0 1:1 2:-1 5:3 
-1 -0 -0 1:1 2:-1 3:1 4:1 5:3 
-1 -0 -0 1:1 2:-1 3:1 4:1 5:3 
-1 -0 -0 1:1 2:-1 3:1 4:1 5:5 
-1 -0 -0 1:3 2:-1 4:1 5:2 
-1 -0 -0 1:3 2:-1 4:1 5:2 
-1 -0 -0 1:3 2:-1 4:1 5:2 
-1 -0 -0 1:1 2:-1 4:1 5:3 
-1 -0 -0 1:1 2:-1 4:1 5:3 
-1 -0 -0 1:1 2:-1 5:2 
-1 -0 -0 1:1 2:-1 5:2 
-1 -0 -0 1:4 2:-1 5:3 
-1 -0 -0 1:4 2:-1 4:1 5:5 
-1 -0 -0 1:4 2:-1 4:1 5:6 
-1 -0 -0 1:4 2:-1 4:1 5:6 
-1 -0 -0 1:4 2:-1 4:1 5:6 
-1 -0 -0 1:4 2:-1 4:1 5:6 
-1 -0 -0.5365059776900937 1:4 2:-1 4:1 5:6 
-1 -0 -0 1:4 2:-1 4:1 5:5 
-0.3358336193789007 -0 -0 1:4 2:-1 4:1 5:1 
-1 -0 -0 1:4 2:-1 4:1 5:1 
-1 -0 -0 1:3 2:-1 4:1 5:2 
-1 -0 -0 1:4 2:-1 4:1 5:3 
-1 -0 -0 1:3 2:-1 4:1 5:1 
-0.8001483876040968 -0 -0 1:3 2:-1 3:1 5:1 
-1 -0 -0 1:4 2:-1 4:1 5:3 
-1 -0 -0 1:4 2:-1 5:5 
-1 -0 -0 1:1 2:-1 4:1 5:2 
-1 -0 -0 1:1 2:-1 4:1 5:2 
-0.944178163511742 -0.568478393453051 -0.1131016058566864 1:2 2:-1 3:1 5:4 
-0 -0.457182010027434 -0.1002478106345167 1:4 2:-1 3:1 5:1 
-0.9876166491721073 -0 -0 1:4 2:-1 3:1 4:1 5:4 
-1 -0 -0 1:1 2:-1 5:2 
-1 -0 -0 1:1 2:-1 5:2 
-1 -0 -0 1:1 2:-1 4:1 5:3 
-1 -0 -0 1:1 2:-1 4:1 5:3 
-1 -0 -0 1:1 2:-1 4:1 5:3 
-1 -0 -0 1:1 2:-1 4:1 5:3 
-1 -0 -0 1:1 2:-1 4:1 5:3 
-1 -0.1751546354563733 -0 1:1 2:-1 3:1 5:2 
-1 -0 -0 1:1 2:-1 3:1 5:3 
-1 -0 -0 1:1 2:-1 3:1 5:3 
-1 -0 -0 1:4 2:-1 4:1 5:4 
-1 -0 -0 1:1 2:-1 4:1 5:1 
-1 -0 -0 1:1 2:-1 4:1 5:1 
-1 -0 -0 1:1 2:-1 4:1 5:1 
-1 -0 -0 1:1 2:-1 4:1 5:2 
-1 -0 -0 1:4 2:-1 4:1 5:3 
-1 -0.2866976520244189 -1 1:1 2:-1 5:5 
-1 -0 -0 1:1 2:-1 5:1 
-1 -0 -0 1:1 2:-1 5:3 
-1 -0 -0 1:1 2:-1 4:1 5:1 
-1 -0 -0 1:1 2:-1 4:1 5:2 
-1 -0 -0 1:4 2:-1 4:1 5:3 
-1 -0 -0 1:4 2:-1 4:1 5:3 
-1 -0 -0 1:4 2:-1 4:1 5:3 
-1 -0 -0 1:1 2:-1 4:1 5:5 
-1 -0 -0 1:1 2:-1 4:1 5:3 
-1 -0 -0 1:4 2:-1 5:2 
-1 -0 -0 1:1 2:-1 4:1 5:3 
-1 -0 -0 1:1 2:-1 4:1 5:3 
-1 -0 -0 1:4 2:-1 4:1 5:5 
-1 -0 -0 1:4 2:-1 4:1 5:5 
-1 -0 -0 1:1 2:-1 5:3 
-1 -0 -0 1:3 2:-1 4:1 5:3 
-1 -0 -0 1:1 2:-1 4:1 5:2 
-1 -0 -0 1:4 2:-1 5:3 
-1 -0 -0 1:1 2:-1 4:1 5:1 
-1 -0 -0 1:1 2:-1 4:1 5:3 
-1 -0 -0 1:3 2:-1 4:1 5:1 
-1 -0 -0 1:3 2:-1 4:1 5:2 
-1 -0 -0 1:1 2:-1 5:1 
-1 -0 -0 1:4 2:-1 5:2 
-1 -0 -0 1:4 2:-1 4:1 5:3 
-1 -0 -0 1:4 2:-1 4:1 5:3 
-1 -0 -0 1:4 2:-1 5:2 
-1 -0 -0 1:4 2:-1 4:1 5:4 
-1 -0 -0 1:4 2:-1 5:2 
-1 -0 -0 1:4 2:-1 5:2 
-1 -0 -0 1:4 2:-1 4:1 5:5 
-1 -0 -0 1:4 2:-1 4:1 5:5 
-1 -0 -0 1:4 2:-1 4:1 5:5 
-1 -0 -0 1:1 2:-1 5:3 
-1 -0 -0 1:1 2:-1 5:2 
-1 -0 -0 1:3 2:-1 4:1 5:1 
-1 -0 -0 1:1 2:-1 4:1 5:4 
-1 -0 -0 1:4 2:-1 4:1 5:3 
-1 -0 -0 1:3 2:-1 4:1 5:2 
-1 -0 -0 1:3 2:-1 4:1 5:2 
-1 -0 -0 1:3 2:-1 4:1 5:2 
-1 -0 -0 1:1 2:-1 5:2 
-1 -0 -0 1:1 2:-1 5:2 
-1 -0 -0 1:1 2:-1 5:2 
-1 -0 -0 1:1 2:-1 5:1 
-1 -0 -0 1:1 2:-1 5:1 
-1 -0 -0 1:1 2:-1 5:1 
-1 -0 -0 1:1 2:-1 5:1 
-1 -0 -0 1:1 2:-1 5:3 
-1 -0 -0 1:1 2:-1 5:3 
-1 -0 -0 1:1 2:-1 5:1 
-1 -0 -0 1:1 2:-1 5:1 
-1 -0 -0 1:1 2:-1 5:1 
-1 -0 -0 1:1 2:-1 4:1 5:3 
-1 -0 -0 1:4 2:-1 4:1 5:3 
-1 -0 -0 1:1 2:-1 4:1 5:4 
-1 -0 -0 1:4 2:-1 4:1 5:3 
-1 -0 -0 1:1 2:-1 5:1 
-1 -0 -0 1:1 2:-1 5:1 
-1 -0 -0 1:1 2:-1 4:1 5:2 
-1 -0 -0 1:1 2:-1 4:1 5:3 
-1 -0 -0 1:1 2:-1 4:1 5:3 
-1 -0 -0 1:1 2:-1 4:1 5:1 
-0.0140477348561006 -0 -0 1:4 2:-1 3:1 5:3 
-1 -0.05060426632980828 -0 1:4 2:-1 3:1 4:1 5:4 
-0.1793022411098982 -1 -0.9270775042692235 1:4 2:-1 3:1 4:1 5:4 
-1 -0 -0 1:1 2:-1 4:1 5:2 
-1 -0 -0 1:4 2:-1 4:1 5:3 
-1 -0 -0 1:1 2:-1 4:1 5:3 
-1 -0 -0 1:3 2:-1 4:1 5:2 
-1 -0 -0 1:1 2:-1 4:1 5:3 
-1 -0 -0 1:1 2:-1 3:1 4:1 5:3 
-1 -0 -0 1:4 2:-1 4:1 5:3 
-1 -0 -0 1:1 2:-1 4:1 5:1 
-1 -0 -0 1:1 2:-1 5:1 
-1 -0 -0 1:1 2:-1 5:1 
-1 -0 -0 1:4 2:-1 4:1 5:1 
-1 -0 -0 1:4 2:-1 4:1 5:3 
-1 -0 -0 1:1 2:-1 4:1 5:1 
-1 -0.8184037786883794 -1 1:4 2:-1 5:7 
-1 -0 -0 1:1 2:-1 4:1 5:3 
-1 -0.02406369704751051 -0 1:1 2:-1 4:1 5:4 
-1 -0 -0 1:1 2:-1 4:1 5:2 
-1 -0 -0 1:4 2:-1 4:1 5:3 
-1 -0 -0 1:4 2:-1 4:1 5:3 
-1 -0 -0 1:4 2:-1 5:3 
-1 -0 -0 1:4 2:-1 5:4 
-1 -0 -0.7209770849691927 1:1 2:-1 5:4 
-1 -0 -0 1:2 2:-1 5:1 
-1 -0.2907936943456145 -0.2779547817997159 1:2 2:-1 5:1 
-1 -0 -0 1:4 2:-1 4:1 5:3 
-1 -0 -0 1:4 2:-1 4:1 5:3 
-1 -0 -0 1:4 2:-1 5:2 
-1 -0 -0 1:4 2:-1 5:5 
-1 -0 -0 1:1 2:-1 4:1 5:3 
-1 -0 -0 1:1 2:-1 4:1 5:1 
-1 -0 -0 1:1 2:-1 4:1 5:1 
-1 -0 -0 1:1 2:-1 5:1 
-1 -0 -0.1707367821557776 1:4 2:-1 5:5 
-1 -0 -0 1:1 2:-1 5:1 
-1 -0.5588906496888084 -1 1:1 2:-1 5:1 
-1 -0 -0 1:1 2:-1 4:1 5:1 
-1 -0 -0 1:1 2:-1 5:2 
-1 -0 -0 1:4 2:-1 5:3 
-1 -0 -0 1:3 2:-1 5:3 
-0.5312328601896499 -0 -0 1:4 2:-1 5:1 
-1 -0 -1 1:4 2:-1 5:1 
-1 -0 -0 1:3 2:-1 4:1 5:1 
-1 -0 -0 1:1 2:-1 5:2 
-1 -0 -0 1:1 2:-1 4:1 5:5 
-1 -0 -0 1:1 2:-1 4:1 5:2 
-1 -0 -0 1:1 2:-1 4:1 5:2 
-1 -0 -0 1:1 2:-1 5:2 
-1 -0.001876758803119984 -0 1:1 2:-1 5:4 
-1 -0 -0 1:4 2:-1 5:6 
-0.5139055738658859 -0 -0 1:4 2:-1 3:1 4:1 5:1 
-1 -0 -0 1:4 2:-1 5:2 
-1 -0 -0 1:4 2:-1 5:2 
-1 -0 -0 1:1 2:-1 4:1 5:1 
-1 -0 -0 1:1 2:-1 4:1 5:1 
-1 -0 -0 1:4 2:-1 4:1 5:4 
-1 -0 -0 1:4 2:-1 4:1 5:5 
-1 -0 -0 1:4 2:-1 4:1 5:3 
-1 -0 -0 1:4 2:-1 4:1 5:3 
-1 -0 -0 2:-1 4:1 5:1 
-1 -0.1018862539800154 -0.192955752176826 2:-1 4:1 5:1 
-1 -0 -0 2:-1 3:1 4:1 5:1 
-1 -0 -0 2:-1 3:1 4:1 5:1 
-1 -0 -0 1:1 2:-1 4:1 5:3 
-1 -0 -0 2:-1 3:1 4:1 5:1 
-1 -0 -0 2:-1 3:1 4:1 5:2 
-1 -0 -0 2:-1 3:1 4:1 5:2 
-1 -0 -0 2:-1 3:1 4:1 5:1 
-1 -0 -0 2:-1 3:1 4:1 5:2 
-1 -0 -0 2:-1 3:1 4:1 5:2 
-1 -0 -0 1:1 2:-1 4:1 5:6 
-1 -0 -0 1:1 2:-1 4:1 5:5 
-1 -0 -0 1:4 2:-1 4:1 5:4 
-1 -0 -0 1:4 2:-1 5:6 
-1 -0 -0 1:4 2:-1 5:3 
-0.7161401502504855 -0 -0.4954311320842792 1:1 2:-1 3:1 4:1 5:1 
-1 -0 -1 1:1 2:-1 3:1 4:1 5:1 
-1 -0.8517472988424287 -0.8536196789953566 1:4 2:-1 5:4 
-1 -0.4997849254763617 -0.237408973962249 2:-1 3:1 5:4 
-1 -0 -0 1:4 2:-1 4:1 5:3 
-1 -0 -0 1:4 2:-1 4:1 5:3 
-1 -0 -0 1:1 2:-1 4:1 5:5 
-1 -0.2864828262059181 -0.1392405926543417 1:1 2:-1 4:1 5:6 
-1 -1 -0.3550511521544222 1:1 2:-1 4:1 5:4 
-1 -1 -1 1:1 2:-1 4:1 5:6 
-1 -1 -0.9972602376798352 1:1 2:-1 4:1 5:6 
-1 -0.4919026181685558 -0.5648447638691195 2:-1 5:1 
-1 -0 -0 2:-1 5:2 
-1 -0 -0 1:1 2:-1 4:1 5:5 
-1 -0 -0 1:1 2:-1 4:1 5:5 
-1 -1 -1 1:1 2:-1 3:1 4:1 5:1 
-0 -0.5883972952899933 -1 1:1 2:-1 3:1 4:1 5:1 
-1 -0 -0 1:1 2:-1 4:1 5:2 
-1 -0 -0 1:1 2:-1 4:1 5:2 
-1 -0 -0 1:4 2:-1 5:3 
-1 -0 -0 1:4 2:-1 5:3 
-1 -0 -0 1:1 2:-1 3:1 4:1 5:3 
-1 -0 -0 1:1 2:-1 4:1 5:1 
-1 -0 -0 1:3 2:-1 4:1 5:2 
-1 -0 -0 1:1 2:-1 4:1 5:3 
-1 -0 -0 1:1 2:-1 4:1 5:3 
-1 -0 -0 1:4 2:-1 5:2 
-1 -0.1619472662091645 -0.1279652766959085 2:-1 5:3 
-1 -0 -0 1:4 2:-1 5:2 
-1 -0.004222951453158824 -0.4145541576823238 1:4 2:-1 5:1 
-1 -1 -0 1:4 2:-1 5:1 
-1 -0 -0 2:-1 3:1 4:1 5:1 
-1 -0.4275944705360173 -0.447697493795452 2:-1 3:1 4:1 5:1 
-1 -0 -0 1:1 2:-1 4:1 5:2 
-1 -0 -0 1:1 2:-1 5:2 
-1 -0 -0 1:1 2:-1 5:3 
-1 -0 -0 1:1 2:-1 5:3 
-1 -0 -0 1:1 2:-1 4:1 5:1 
-0 -0.9908367668066639 -1 1:4 2:-1 3:1 5:1 
-1 -0 -0 1:4 2:-1 4:1 5:3 
-1 -0.2565120965033051 -0.4399683195442705 2:-1 3:1 4:1 5:3 
-1 -0 -0 1:4 2:-1 4:1 5:3 
-1 -0 -0 1:4 2:-1 4:1 5:4 
-1 -0 -0 1:1 2:-1 4:1 5:2 
-1 -0 -0 1:4 2:-1 4:1 5:3 
-1 -0.6384255810734804 -0 1:4 2:-1 4:1 5:4 
-1 -0 -0 1:4 2:-1 4:1 5:3 
-1 -0 -0 1:4 2:-1 4:1 5:3 
-1 -0 -0 1:3 2:-1 3:1 5:3 
-1 -1 -0.6729689339508728 1:1 2:-1 5:1 
-1 -0 -0 1:1 2:-1 5:3 
-1 -0 -0 1:1 2:-1 5:3 
-1 -0 -0 2:-1 3:1 4:1 5:2 
-1 -0 -0 1:3 2:-1 4:1 5:3 
-1 -0.06560140736063071 -0 1:1 2:-1 5:3 
-0.6625130196128115 -0.3104712356810497 -0 1:4 2:-1 3:1 5:3 
-1 -0 -0 1:4 2:-1 3:1 4:1 5:1 
-1 -0 -0 1:4 2:-1 3:1 4:1 5:1 
-1 -0 -0 1:1 2:-1 4:1 5:2 
-1 -0.07910722722440362 -0 1:3 2:-1 4:1 5:4 
-1 -0 -0 1:1 2:-1 4:1 5:2 
-1 -0 -0 1:1 2:-1 4:1 5:3 
-1 -0 -0 1:1 2:-1 5:2 
-1 -0 -0 1:1 2:-1 5:2 
-1 -0 -0 1:4 2:-1 5:2 
-1 -0 -0 1:4 2:-1 5:2 
-1 -0.1363270588243142 -0.4229590533331385 1:1 2:-1 3:1 4:1 5:3 
-1 -0.9623325864513778 -0.3818078093197949 1:4 2:-1 4:1 5:4 
-1 -0 -0 1:4 2:-1 4:1 5:3 
-1 -0 -0 1:4 2:-1 4:1 5:1 
-1 -0 -0 1:4 2:-1 4:1 5:1 
-1 -0 -0 1:1 2:-1 4:1 5:3 
-0 -0 -0.245040352284914 1:4 2:-1 3:1 4:1 5:3 
-0 -0 -0.01026280159700743 1:4 2:-1 3:1 4:1 5:3 
-0 -0 -0.05744520505878818 1:3 2:-1 3:1 4:1 5:4 
-1 -0 -0 1:2 2:-1 4:1 5:2 
-1 -0 -0 1:1 2:-1 4:1 5:1 
-1 -0 -0 1:4 2:-1 4:1 5:3 
-1 -0 -0.0507446416700245 1:4 2:-1 4:1 5:3 
-1 -0 -0 1:1 2:-1 4:1 5:2 
-1 -0 -0 1:4 2:-1 4:1 5:1 
-1 -1 -0.1729030598917461 1:4 2:-1 4:1 5:1 
-0.2000858579354413 -0.3010464799395995 -1 1:4 2:-1 4:1 5:1 
-1 -0 -0 1:1 2:-1 4:1 5:1 
-0.8111193744593018 -0.4261528137812401 -0.1290129058997276 1:1 2:-1 4:1 5:1 
-1 -0 -0.2761359479073658 1:1 2:-1 4:1 5:3 
-1 -0 -0 1:1 2:-1 3:1 4:1 5:5 
-1 -0 -0 1:1 2:-1 3:1 4:1 5:5 
-1 -0 -0 1:3 2:-1 4:1 5:1 
-1 -0.04050768505864915 -0.8148015559385041 1:4 2:-1 3:1 4:1 5:1 
-1 -1 -0.4640659523160879 1:4 2:-1 3:1 4:1 5:1 
-1 -0 -0 1:3 2:-1 4:1 5:2 
-1 -0 -0 1:4 2:-1 5:2 
-1 -0.1372714518736186 -0 1:4 2:-1 5:3 
-1 -0 -0 1:4 2:-1 5:2 
-1 -0 -0 1:4 2:-1 5:2 
